{"learner":{"attributes":{"best_iteration":"199","best_score":"0.34118809150531887","scikit_learn":"{\"_estimator_type\": \"classifier\"}"},"feature_names":["text_length","num_words","avg_word_length","num_suspicious_words","num_exclamations"],"feature_types":["int","int","float","int","int"],"gradient_booster":{"model":{"gbtree_model_param":{"num_parallel_tree":"1","num_trees":"200"},"iteration_indptr":[0,1,2,3,4,5,6,7,8,9,10,11,12,13,14,15,16,17,18,19,20,21,22,23,24,25,26,27,28,29,30,31,32,33,34,35,36,37,38,39,40,41,42,43,44,45,46,47,48,49,50,51,52,53,54,55,56,57,58,59,60,61,62,63,64,65,66,67,68,69,70,71,72,73,74,75,76,77,78,79,80,81,82,83,84,85,86,87,88,89,90,91,92,93,94,95,96,97,98,99,100,101,102,103,104,105,106,107,108,109,110,111,112,113,114,115,116,117,118,119,120,121,122,123,124,125,126,127,128,129,130,131,132,133,134,135,136,137,138,139,140,141,142,143,144,145,146,147,148,149,150,151,152,153,154,155,156,157,158,159,160,161,162,163,164,165,166,167,168,169,170,171,172,173,174,175,176,177,178,179,180,181,182,183,184,185,186,187,188,189,190,191,192,193,194,195,196,197,198,199,200],"tree_info":[0,0,0,0,0,0,0,0,0,0,0,0,0,0,0,0,0,0,0,0,0,0,0,0,0,0,0,0,0,0,0,0,0,0,0,0,0,0,0,0,0,0,0,0,0,0,0,0,0,0,0,0,0,0,0,0,0,0,0,0,0,0,0,0,0,0,0,0,0,0,0,0,0,0,0,0,0,0,0,0,0,0,0,0,0,0,0,0,0,0,0,0,0,0,0,0,0,0,0,0,0,0,0,0,0,0,0,0,0,0,0,0,0,0,0,0,0,0,0,0,0,0,0,0,0,0,0,0,0,0,0,0,0,0,0,0,0,0,0,0,0,0,0,0,0,0,0,0,0,0,0,0,0,0,0,0,0,0,0,0,0,0,0,0,0,0,0,0,0,0,0,0,0,0,0,0,0,0,0,0,0,0,0,0,0,0,0,0,0,0,0,0,0,0,0,0,0,0,0,0],"trees":[{"base_weights":[1.3270572E-6,-1.498932E0,1.2066641E0,-1.6527723E0,-1.9359703E-1,1.3186066E0,-7.4782175E-1,-1.7208632E0,3.1670055E-3,-1.0201264E-2,7.171948E-1,3.6651915E-1,1.5953989E0,-1.7858181E-2,-1.3501397E-2,-1.7592939E0,-4.78897E-3,1.0597309E-2,-1.5000605E-4,-9.465535E-2,1.1784941E0,-1.5000605E-4,1.6332291E0,-2.3613086E-3,2.0835216E-3,-1.8095812E-2,-9.296632E-1,-3.0871654E-1,8.932714E-3,1.3801735E-2,5.5363416E-3,1.4188882E0,1.8985873E-2,-1.3133911E-2,2.0835216E-3,-6.4696227E-3,2.6551085E-3,6.454574E-3,1.5315297E-2],"categories":[],"categories_nodes":[],"categories_segments":[],"categories_sizes":[],"default_left":[0,0,0,0,0,0,0,0,0,0,0,0,0,0,0,0,0,0,0,0,0,0,0,0,0,0,0,0,0,0,0,0,0,0,0,0,0,0,0],"id":0,"left_children":[1,3,5,7,9,11,13,15,-1,-1,17,19,21,23,-1,25,-1,-1,-1,27,29,-1,31,-1,-1,-1,33,35,-1,-1,-1,37,-1,-1,-1,-1,-1,-1,-1],"loss_changes":[2.9296533E2,1.4186523E1,2.0619476E1,9.193344E0,7.3176847E0,2.1877747E1,2.3937662E0,2.1401215E0,0E0,0E0,1.2070656E0,7.7868843E0,4.0294952E0,2.2199346E-1,0E0,8.309479E-1,0E0,0E0,0E0,3.2360132E0,1.809206E-1,0E0,9.5991516E-1,0E0,0E0,0E0,2.675127E0,2.5507512E0,0E0,0E0,0E0,2.4521866E0,0E0,0E0,0E0,0E0,0E0,0E0,0E0],"parents":[2147483647,0,0,1,1,2,2,3,3,4,4,5,5,6,6,7,7,10,10,11,11,12,12,13,13,15,15,19,19,20,20,22,22,26,26,27,27,31,31],"right_children":[2,4,6,8,10,12,14,16,-1,-1,18,20,22,24,-1,26,-1,-1,-1,28,30,-1,32,-1,-1,-1,34,36,-1,-1,-1,38,-1,-1,-1,-1,-1,-1,-1],"split_conditions":[1.06E2,1E0,1.66E2,1E0,7.2E1,1.34E2,1.88E2,1.01E2,3.1670055E-3,-1.0201264E-2,9.6E1,1E0,3.2857144E0,1.74E2,-1.3501397E-2,6.071429E0,-4.78897E-3,1.0597309E-2,-1.5000605E-4,6.142857E0,1.26E2,-1.5000605E-4,1E0,-2.3613086E-3,2.0835216E-3,-1.8095812E-2,5E0,1E0,8.932714E-3,1.3801735E-2,5.5363416E-3,4.111111E0,1.8985873E-2,-1.3133911E-2,2.0835216E-3,-6.4696227E-3,2.6551085E-3,6.454574E-3,1.5315297E-2],"split_indices":[0,4,0,3,0,0,0,0,0,0,0,3,2,0,0,2,0,0,0,2,0,0,3,0,0,0,1,4,0,0,0,2,0,0,0,0,0,0,0],"split_type":[0,0,0,0,0,0,0,0,0,0,0,0,0,0,0,0,0,0,0,0,0,0,0,0,0,0,0,0,0,0,0,0,0,0,0,0,0,0,0],"sum_hessian":[1.59975E2,7.123887E1,8.873614E1,6.3490078E1,7.7487893E0,8.423684E1,4.499297E0,6.149039E1,1.9996876E0,3.999375E0,3.7494142E0,1.9496954E1,6.473988E1,2.4996095E0,1.9996876E0,5.9240746E1,2.2496486E0,2.2496486E0,1.4997656E0,1.2997969E1,6.4989843E0,1.4997656E0,6.324012E1,1.2498047E0,1.2498047E0,5.4741447E1,4.499297E0,1.1248242E1,1.7497267E0,3.999375E0,2.4996095E0,3.8493984E1,2.4746134E1,3.2494922E0,1.2498047E0,6.9989066E0,4.2493362E0,5.7491016E0,3.2744884E1],"tree_param":{"num_deleted":"0","num_feature":"5","num_nodes":"39","size_leaf_vector":"1"}},{"base_weights":[1.317809E-4,-1.4841925E0,1.1954039E0,-1.6365097E0,-1.9163142E-1,1.3064579E0,-7.428154E-1,-1.7039677E0,3.145982E-3,-1.011883E-2,7.1227664E-1,3.6406463E-1,1.5804687E0,-1.7758965E-2,-1.3410285E-2,-1.7419444E0,-4.7556376E-3,1.0525121E-2,-1.4910601E-4,-9.334207E-2,1.1694559E0,-1.4910601E-4,1.6179568E0,-2.3580599E-3,2.0818298E-3,-1.7915545E-2,-9.223152E-1,-3.0593193E-1,8.876621E-3,1.3693747E-2,5.4971003E-3,1.4055622E0,1.8809333E-2,2.1057255E-3,-1.3050395E-2,-6.4126155E-3,2.633691E-3,6.400091E-3,1.5170382E-2],"categories":[],"categories_nodes":[],"categories_segments":[],"categories_sizes":[],"default_left":[0,0,0,0,0,0,0,0,0,0,0,0,0,0,0,0,0,0,0,0,0,0,0,0,0,0,0,0,0,0,0,0,0,0,0,0,0,0,0],"id":1,"left_children":[1,3,5,7,9,11,13,15,-1,-1,17,19,21,23,-1,25,-1,-1,-1,27,29,-1,31,-1,-1,-1,33,35,-1,-1,-1,37,-1,-1,-1,-1,-1,-1,-1],"loss_changes":[2.873552E2,1.3910385E1,2.028212E1,9.025192E0,7.2074094E0,2.1430374E1,2.361548E0,2.087204E0,0E0,0E0,1.190681E0,7.659706E0,3.9548645E0,2.2150247E-1,0E0,7.9745483E-1,0E0,0E0,0E0,3.1908855E0,1.7622375E-1,0E0,9.4340515E-1,0E0,0E0,0E0,2.659367E0,2.507187E0,0E0,0E0,0E0,2.3987885E0,0E0,0E0,0E0,0E0,0E0,0E0,0E0],"parents":[2147483647,0,0,1,1,2,2,3,3,4,4,5,5,6,6,7,7,10,10,11,11,12,12,13,13,15,15,19,19,20,20,22,22,26,26,27,27,31,31],"right_children":[2,4,6,8,10,12,14,16,-1,-1,18,20,22,24,-1,26,-1,-1,-1,28,30,-1,32,-1,-1,-1,34,36,-1,-1,-1,38,-1,-1,-1,-1,-1,-1,-1],"split_conditions":[1.06E2,1E0,1.66E2,1E0,7.2E1,1.34E2,1.88E2,1.01E2,3.145982E-3,-1.011883E-2,9.6E1,1E0,3.2857144E0,5.05E0,-1.3410285E-2,6.071429E0,-4.7556376E-3,1.0525121E-2,-1.4910601E-4,6.142857E0,1.26E2,-1.4910601E-4,1E0,-2.3580599E-3,2.0818298E-3,-1.7915545E-2,6.266667E0,1E0,8.876621E-3,1.3693747E-2,5.4971003E-3,4.111111E0,1.8809333E-2,2.1057255E-3,-1.3050395E-2,-6.4126155E-3,2.633691E-3,6.400091E-3,1.5170382E-2],"split_indices":[0,4,0,3,0,0,0,0,0,0,0,3,2,2,0,2,0,0,0,2,0,0,3,0,0,0,2,4,0,0,0,2,0,0,0,0,0,0,0],"split_type":[0,0,0,0,0,0,0,0,0,0,0,0,0,0,0,0,0,0,0,0,0,0,0,0,0,0,0,0,0,0,0,0,0,0,0,0,0,0,0],"sum_hessian":[1.5996584E2,7.1247215E1,8.871861E1,6.349838E1,7.7488365E0,8.421907E1,4.4995446E0,6.1498775E1,1.9996034E0,3.999781E0,3.7490559E0,1.9495995E1,6.4723076E1,2.4996107E0,1.9999338E0,5.9249004E1,2.2497702E0,2.2492874E0,1.4997685E0,1.2998083E1,6.4979124E0,1.4997685E0,6.322331E1,1.2498122E0,1.2497984E0,5.4749348E1,4.499656E0,1.1248587E1,1.7494965E0,3.9984949E0,2.4994173E0,3.8485275E1,2.4738033E1,1.2498449E0,3.2498114E0,6.999399E0,4.2491875E0,5.748578E0,3.27367E1],"tree_param":{"num_deleted":"0","num_feature":"5","num_nodes":"39","size_leaf_vector":"1"}},{"base_weights":[2.598907E-4,-1.4697922E0,1.1843681E0,-1.620639E0,-1.896915E-1,1.2945559E0,-7.378671E-1,-1.6874869E0,3.1251083E-3,-1.0037483E-2,7.074109E-1,3.6163768E-1,1.5658731E0,-1.7660215E-2,-1.3320596E-2,-1.7250291E0,-4.722576E-3,1.0453826E-2,-1.482117E-4,-9.204516E-2,1.1605508E0,-1.482117E-4,1.6030315E0,-2.344924E-3,2.070297E-3,-1.7739926E-2,-9.150596E-1,-3.031766E-1,8.821099E-3,1.3587619E-2,5.458197E-3,1.3924967E0,1.863758E-2,2.0940548E-3,-1.2950101E-2,-6.3562333E-3,2.6124527E-3,6.3461754E-3,1.5028495E-2],"categories":[],"categories_nodes":[],"categories_segments":[],"categories_sizes":[],"default_left":[0,0,0,0,0,0,0,0,0,0,0,0,0,0,0,0,0,0,0,0,0,0,0,0,0,0,0,0,0,0,0,0,0,0,0,0,0,0,0],"id":2,"left_children":[1,3,5,7,9,11,13,15,-1,-1,17,19,21,23,-1,25,-1,-1,-1,27,29,-1,31,-1,-1,-1,33,35,-1,-1,-1,37,-1,-1,-1,-1,-1,-1,-1],"loss_changes":[2.8188605E2,1.3643234E1,1.9952614E1,8.862183E0,7.0990634E0,2.0997406E1,2.3299866E0,2.0366364E0,0E0,0E0,1.1745927E0,7.535084E0,3.8825836E0,2.1904795E-1,0E0,7.660675E-1,0E0,0E0,0E0,3.1464639E0,1.7177486E-1,0E0,9.286957E-1,0E0,0E0,0E0,2.6209183E0,2.4644153E0,0E0,0E0,0E0,2.3475342E0,0E0,0E0,0E0,0E0,0E0,0E0,0E0],"parents":[2147483647,0,0,1,1,2,2,3,3,4,4,5,5,6,6,7,7,10,10,11,11,12,12,13,13,15,15,19,19,20,20,22,22,26,26,27,27,31,31],"right_children":[2,4,6,8,10,12,14,16,-1,-1,18,20,22,24,-1,26,-1,-1,-1,28,30,-1,32,-1,-1,-1,34,36,-1,-1,-1,38,-1,-1,-1,-1,-1,-1,-1],"split_conditions":[1.06E2,1E0,1.66E2,1E0,7.2E1,1.34E2,1.88E2,1.01E2,3.1251083E-3,-1.0037483E-2,9.6E1,1E0,3.2857144E0,5.05E0,-1.3320596E-2,6.071429E0,-4.722576E-3,1.0453826E-2,-1.482117E-4,6.142857E0,1.26E2,-1.482117E-4,1E0,-2.344924E-3,2.070297E-3,-1.7739926E-2,6.266667E0,1E0,8.821099E-3,1.3587619E-2,5.458197E-3,4.111111E0,1.863758E-2,2.0940548E-3,-1.2950101E-2,-6.3562333E-3,2.6124527E-3,6.3461754E-3,1.5028495E-2],"split_indices":[0,4,0,3,0,0,0,0,0,0,0,3,2,2,0,2,0,0,0,2,0,0,3,0,0,0,2,4,0,0,0,2,0,0,0,0,0,0,0],"split_type":[0,0,0,0,0,0,0,0,0,0,0,0,0,0,0,0,0,0,0,0,0,0,0,0,0,0,0,0,0,0,0,0,0,0,0,0,0,0,0],"sum_hessian":[1.599382E2,7.1246056E1,8.869215E1,6.34975E1,7.7485533E0,8.4192535E1,4.4996085E0,6.1497993E1,1.9995098E0,3.999978E0,3.748575E0,1.9494402E1,6.4698135E1,2.4996107E0,1.9999981E0,5.9248127E1,2.2498655E0,2.2488039E0,1.4997712E0,1.2997967E1,6.496434E0,1.4997712E0,6.3198364E1,1.2498465E0,1.2497642E0,5.4748337E1,4.49979E0,1.1248769E1,1.7491984E0,3.9972456E0,2.4991887E0,3.8472748E1,2.4725618E1,1.2498158E0,3.2499745E0,6.999743E0,4.2490253E0,5.7479405E0,3.2724808E1],"tree_param":{"num_deleted":"0","num_feature":"5","num_nodes":"39","size_leaf_vector":"1"}},{"base_weights":[3.8591985E-4,-1.4557196E0,1.1735495E0,-1.6051463E0,-1.8777657E-1,1.2828925E0,-7.329767E-1,-1.6714063E0,3.1043815E-3,-9.957195E-3,7.025965E-1,3.5923794E-1,1.5516007E0,-1.7562177E-2,-1.3232297E-2,-1.7085322E0,-4.689781E-3,1.0383402E-2,-1.4732167E-4,-9.076396E-2,1.1517755E0,-1.4732167E-4,1.588441E0,-2.341694E-3,2.0686053E-3,-1.7568761E-2,-9.079066E-1,-3.004498E-1,8.766142E-3,1.3483296E-2,5.419626E-3,1.3796836E0,1.8470429E-2,-1.2869134E-2,2.11572E-3,-6.3004578E-3,2.5913918E-3,6.292821E-3,1.4889536E-2],"categories":[],"categories_nodes":[],"categories_segments":[],"categories_sizes":[],"default_left":[0,0,0,0,0,0,0,0,0,0,0,0,0,0,0,0,0,0,0,0,0,0,0,0,0,0,0,0,0,0,0,0,0,0,0,0,0,0,0],"id":3,"left_children":[1,3,5,7,9,11,13,15,-1,-1,17,19,21,23,-1,25,-1,-1,-1,27,29,-1,31,-1,-1,-1,33,35,-1,-1,-1,37,-1,-1,-1,-1,-1,-1,-1],"loss_changes":[2.7655313E2,1.3384674E1,1.9630676E1,8.704086E0,6.9926047E0,2.057817E1,2.2990613E0,1.9882965E0,0E0,0E0,1.1587927E0,7.412942E0,3.8125763E0,2.1856171E-1,0E0,7.3646545E-1,0E0,0E0,0E0,3.1027339E0,1.6756344E-1,0E0,9.1563416E-1,0E0,0E0,0E0,2.6057205E0,2.4224157E0,0E0,0E0,0E0,2.2983246E0,0E0,0E0,0E0,0E0,0E0,0E0,0E0],"parents":[2147483647,0,0,1,1,2,2,3,3,4,4,5,5,6,6,7,7,10,10,11,11,12,12,13,13,15,15,19,19,20,20,22,22,26,26,27,27,31,31],"right_children":[2,4,6,8,10,12,14,16,-1,-1,18,20,22,24,-1,26,-1,-1,-1,28,30,-1,32,-1,-1,-1,34,36,-1,-1,-1,38,-1,-1,-1,-1,-1,-1,-1],"split_conditions":[1.06E2,1E0,1.66E2,1E0,7.2E1,1.34E2,1.88E2,1.01E2,3.1043815E-3,-9.957195E-3,9.6E1,1E0,3.2857144E0,1.74E2,-1.3232297E-2,6.071429E0,-4.689781E-3,1.0383402E-2,-1.4732167E-4,6.142857E0,1.26E2,-1.4732167E-4,1E0,-2.341694E-3,2.0686053E-3,-1.7568761E-2,5E0,1E0,8.766142E-3,1.3483296E-2,5.419626E-3,4.111111E0,1.8470429E-2,-1.2869134E-2,2.11572E-3,-6.3004578E-3,2.5913918E-3,6.292821E-3,1.4889536E-2],"split_indices":[0,4,0,3,0,0,0,0,0,0,0,3,2,0,0,2,0,0,0,2,0,0,3,0,0,0,1,4,0,0,0,2,0,0,0,0,0,0,0],"split_type":[0,0,0,0,0,0,0,0,0,0,0,0,0,0,0,0,0,0,0,0,0,0,0,0,0,0,0,0,0,0,0,0,0,0,0,0,0,0,0],"sum_hessian":[1.5989261E2,7.123563E1,8.865698E1,6.348768E1,7.7479463E0,8.415749E1,4.4994884E0,6.148827E1,1.9994072E0,3.9999716E0,3.7479744E0,1.9492188E1,6.4665306E1,2.4996045E0,1.9998841E0,5.9238335E1,2.2499352E0,2.2482004E0,1.499774E0,1.2997626E1,6.4945607E0,1.499774E0,6.316553E1,1.24985E0,1.2497544E0,5.473869E1,4.4996467E0,1.1248793E1,1.7488343E0,3.9956362E0,2.4989243E0,3.8456516E1,2.4709015E1,3.2498302E0,1.2498164E0,6.999942E0,4.2488503E0,5.7471924E0,3.2709324E1],"tree_param":{"num_deleted":"0","num_feature":"5","num_nodes":"39","size_leaf_vector":"1"}},{"base_weights":[5.098152E-4,-1.4419618E0,1.1629406E0,-1.5900164E0,-1.8588614E-1,1.2714595E0,-7.2814214E-1,-1.6557094E0,3.083804E-3,-9.877946E-3,6.9783276E-1,3.5686466E-1,1.5376394E0,-1.7464604E-2,-1.31453555E-2,-1.6924367E0,-4.6572494E-3,1.0313835E-2,-1.4643736E-4,-8.949837E-2,1.1431262E0,-1.4643736E-4,1.574173E0,-2.3286545E-3,2.0571481E-3,-1.7401885E-2,-9.0084213E-1,-2.9775116E-1,8.711738E-3,1.338073E-2,5.3813807E-3,1.3671141E0,1.8307697E-2,2.103995E-3,-1.2771731E-2,-6.2452815E-3,2.5705076E-3,6.240013E-3,1.4753401E-2],"categories":[],"categories_nodes":[],"categories_segments":[],"categories_sizes":[],"default_left":[0,0,0,0,0,0,0,0,0,0,0,0,0,0,0,0,0,0,0,0,0,0,0,0,0,0,0,0,0,0,0,0,0,0,0,0,0,0,0],"id":4,"left_children":[1,3,5,7,9,11,13,15,-1,-1,17,19,21,23,-1,25,-1,-1,-1,27,29,-1,31,-1,-1,-1,33,35,-1,-1,-1,37,-1,-1,-1,-1,-1,-1,-1],"loss_changes":[2.7135175E2,1.3134323E1,1.9316078E1,8.550644E0,6.8879943E0,2.0172028E1,2.268757E0,1.9420319E0,0E0,0E0,1.1432748E0,7.2932177E0,3.7446747E0,2.1614017E-1,0E0,7.087097E-1,0E0,0E0,0E0,3.0596828E0,1.6357708E-1,0E0,9.041443E-1,0E0,0E0,0E0,2.568489E0,2.3811753E0,0E0,0E0,0E0,2.2510452E0,0E0,0E0,0E0,0E0,0E0,0E0,0E0],"parents":[2147483647,0,0,1,1,2,2,3,3,4,4,5,5,6,6,7,7,10,10,11,11,12,12,13,13,15,15,19,19,20,20,22,22,26,26,27,27,31,31],"right_children":[2,4,6,8,10,12,14,16,-1,-1,18,20,22,24,-1,26,-1,-1,-1,28,30,-1,32,-1,-1,-1,34,36,-1,-1,-1,38,-1,-1,-1,-1,-1,-1,-1],"split_conditions":[1.06E2,1E0,1.66E2,1E0,7.2E1,1.34E2,1.88E2,1.01E2,3.083804E-3,-9.877946E-3,9.6E1,1E0,3.2857144E0,1.74E2,-1.31453555E-2,6.071429E0,-4.6572494E-3,1.0313835E-2,-1.4643736E-4,6.142857E0,1.26E2,-1.4643736E-4,1E0,-2.3286545E-3,2.0571481E-3,-1.7401885E-2,6.266667E0,1E0,8.711738E-3,1.338073E-2,5.3813807E-3,4.111111E0,1.8307697E-2,2.103995E-3,-1.2771731E-2,-6.2452815E-3,2.5705076E-3,6.240013E-3,1.4753401E-2],"split_indices":[0,4,0,3,0,0,0,0,0,0,0,3,2,0,0,2,0,0,0,2,0,0,3,0,0,0,2,4,0,0,0,2,0,0,0,0,0,0,0],"split_type":[0,0,0,0,0,0,0,0,0,0,0,0,0,0,0,0,0,0,0,0,0,0,0,0,0,0,0,0,0,0,0,0,0,0,0,0,0,0,0],"sum_hessian":[1.598296E2,7.121623E1,8.861337E1,6.3469208E1,7.7470217E0,8.411418E1,4.499192E0,6.1469913E1,1.9992955E0,3.9997652E0,3.7472565E0,1.9489368E1,6.462482E1,2.499597E0,1.999595E0,5.9219933E1,2.2499795E0,2.24748E0,1.4997766E0,1.29970665E1,6.492301E0,1.4997766E0,6.312504E1,1.2498797E0,1.2497174E0,5.4720646E1,4.499287E0,1.1248662E1,1.7484051E0,3.993676E0,2.498625E0,3.843669E1,2.4688347E1,1.2497896E0,3.2494974E0,7E0,4.2486615E0,5.7463365E0,3.2690353E1],"tree_param":{"num_deleted":"0","num_feature":"5","num_nodes":"39","size_leaf_vector":"1"}},{"base_weights":[6.3155644E-4,-1.4285085E0,1.1525346E0,-1.575237E0,-1.8401998E-1,1.260249E0,-7.2336334E-1,-1.6403832E0,3.0633705E-3,-9.799713E-3,6.9311863E-1,3.545173E-1,1.5239781E0,-1.7367573E-2,-1.305974E-2,-1.6767287E0,-4.6249796E-3,1.0245105E-2,-1.455588E-4,-8.8248424E-2,1.1346004E0,-1.455588E-4,1.560216E0,-2.3254636E-3,2.0554787E-3,-1.7239131E-2,-8.938759E-1,-2.9508057E-1,8.657876E-3,1.327987E-2,5.3434604E-1,1.3547801E0,1.814922E-2,-1.2693334E-2,2.1253983E-3,-6.1907005E-3,2.5497975E-3,1.9325077E-3,6.37864E-3,6.1877496E-3,1.461999E-2],"categories":[],"categories_nodes":[],"categories_segments":[],"categories_sizes":[],"default_left":[0,0,0,0,0,0,0,0,0,0,0,0,0,0,0,0,0,0,0,0,0,0,0,0,0,0,0,0,0,0,0,0,0,0,0,0,0,0,0,0,0],"id":5,"left_children":[1,3,5,7,9,11,13,15,-1,-1,17,19,21,23,-1,25,-1,-1,-1,27,29,-1,31,-1,-1,-1,33,35,-1,-1,37,39,-1,-1,-1,-1,-1,-1,-1,-1,-1],"loss_changes":[2.6627744E2,1.28918E1,1.9008545E1,8.401672E0,6.7851934E0,1.9778503E1,2.2390552E0,1.8977661E0,0E0,0E0,1.1280322E0,7.1758547E0,3.678833E0,2.1566282E-1,0E0,6.8247986E-1,0E0,0E0,0E0,3.0173006E0,1.5980434E-1,0E0,8.940582E-1,0E0,0E0,0E0,2.5539947E0,2.3406806E0,0E0,0E0,2.5510788E-4,2.2056198E0,0E0,0E0,0E0,0E0,0E0,0E0,0E0,0E0,0E0],"parents":[2147483647,0,0,1,1,2,2,3,3,4,4,5,5,6,6,7,7,10,10,11,11,12,12,13,13,15,15,19,19,20,20,22,22,26,26,27,27,30,30,31,31],"right_children":[2,4,6,8,10,12,14,16,-1,-1,18,20,22,24,-1,26,-1,-1,-1,28,30,-1,32,-1,-1,-1,34,36,-1,-1,38,40,-1,-1,-1,-1,-1,-1,-1,-1,-1],"split_conditions":[1.06E2,1E0,1.66E2,1E0,7.2E1,1.34E2,1.88E2,1.01E2,3.0633705E-3,-9.799713E-3,9.6E1,1E0,3.2857144E0,5.05E0,-1.305974E-2,6.071429E0,-4.6249796E-3,1.0245105E-2,-1.455588E-4,6.142857E0,1.26E2,-1.455588E-4,1E0,-2.3254636E-3,2.0554787E-3,-1.7239131E-2,5E0,1E0,8.657876E-3,1.327987E-2,1.2E1,4.111111E0,1.814922E-2,-1.2693334E-2,2.1253983E-3,-6.1907005E-3,2.5497975E-3,1.9325077E-3,6.37864E-3,6.1877496E-3,1.461999E-2],"split_indices":[0,4,0,3,0,0,0,0,0,0,0,3,2,2,0,2,0,0,0,2,0,0,3,0,0,0,1,4,0,0,1,2,0,0,0,0,0,0,0,0,0],"split_type":[0,0,0,0,0,0,0,0,0,0,0,0,0,0,0,0,0,0,0,0,0,0,0,0,0,0,0,0,0,0,0,0,0,0,0,0,0,0,0,0,0],"sum_hessian":[1.5974965E2,7.118808E1,8.856158E1,6.344229E1,7.745789E0,8.406286E1,4.4987183E0,6.144312E1,1.999175E0,3.9993653E0,3.746424E0,1.9485958E1,6.45769E1,2.4995837E0,1.9991345E0,5.919312E1,2.249999E0,2.2466445E0,1.4997793E0,1.2996293E1,6.489665E0,1.4997793E0,6.3077118E1,1.2498791E0,1.2497044E0,5.4694458E1,4.4986615E0,1.1248381E1,1.7479122E0,3.9913733E0,2.4982917E0,3.841338E1,2.4663738E1,3.2489092E0,1.2497523E0,6.9999194E0,4.2484612E0,1.2491459E0,1.2491459E0,5.7453756E0,3.2668003E1],"tree_param":{"num_deleted":"0","num_feature":"5","num_nodes":"41","size_leaf_vector":"1"}},{"base_weights":[7.700558E-4,-1.4153471E0,1.1423571E0,-1.5607935E0,-1.821772E-1,1.2492881E0,-7.186386E-1,-1.6254121E0,3.0430837E-3,-9.7224694E-1,6.884533E-1,3.523392E-1,1.5106068E0,-1.7271057E-2,-1.297542E-2,-1.7702362E-2,-1.1853058E0,-1.1181096E-2,-3.7907627E-3,1.0177193E-2,-1.4468595E-4,-8.701336E-2,1.1265792E0,-1.4468595E-4,1.5465592E0,-2.3125187E-3,2.0440975E-3,-1.40861105E-2,8.057862E-3,-2.924372E-1,8.6045535E-3,1.3180674E-2,5.314219E-1,1.3426744E0,1.7994834E-2,-6.1366963E-3,2.5292616E-3,6.3535403E-3,1.9120069E-3,6.1360174E-3,1.4489218E-2],"categories":[],"categories_nodes":[],"categories_segments":[],"categories_sizes":[],"default_left":[0,0,0,0,0,0,0,0,0,0,0,0,0,0,0,0,0,0,0,0,0,0,0,0,0,0,0,0,0,0,0,0,0,0,0,0,0,0,0,0,0],"id":6,"left_children":[1,3,5,7,9,11,13,15,-1,17,19,21,23,25,-1,-1,27,-1,-1,-1,-1,29,31,-1,33,-1,-1,-1,-1,35,-1,-1,37,39,-1,-1,-1,-1,-1,-1,-1],"loss_changes":[2.6133252E2,1.2656769E1,1.870848E1,8.257004E0,6.68416E0,1.939177E1,2.2099411E0,1.8795013E0,0E0,8.651257E-3,1.1130586E0,7.0652905E0,3.6149445E0,2.1327372E-1,0E0,0E0,9.35083E0,0E0,0E0,0E0,0E0,2.9755735E0,1.5278149E-1,0E0,8.853302E-1,0E0,0E0,0E0,0E0,2.3009129E0,0E0,0E0,2.2089481E-3,2.1619186E0,0E0,0E0,0E0,0E0,0E0,0E0,0E0],"parents":[2147483647,0,0,1,1,2,2,3,3,4,4,5,5,6,6,7,7,9,9,10,10,11,11,12,12,13,13,16,16,21,21,22,22,24,24,29,29,32,32,33,33],"right_children":[2,4,6,8,10,12,14,16,-1,18,20,22,24,26,-1,-1,28,-1,-1,-1,-1,30,32,-1,34,-1,-1,-1,-1,36,-1,-1,38,40,-1,-1,-1,-1,-1,-1,-1],"split_conditions":[1.06E2,1E0,1.66E2,1E0,7.2E1,1.34E2,1.88E2,4.923077E0,3.0430837E-3,6.3E1,9.6E1,1E0,3.2857144E0,5.05E0,-1.297542E-2,-1.7702362E-2,8.4E1,-1.1181096E-2,-3.7907627E-3,1.0177193E-2,-1.4468595E-4,6.142857E0,1.26E2,-1.4468595E-4,1E0,-2.3125187E-3,2.0440975E-3,-1.40861105E-2,8.057862E-3,1E0,8.6045535E-3,1.3180674E-2,4.8E0,4.111111E0,1.7994834E-2,-6.1366963E-3,2.5292616E-3,6.3535403E-3,1.9120069E-3,6.1360174E-3,1.4489218E-2],"split_indices":[0,4,0,3,0,0,0,2,0,0,0,3,2,2,0,0,0,0,0,0,0,2,0,0,3,0,0,0,0,4,0,0,2,2,0,0,0,0,0,0,0],"split_type":[0,0,0,0,0,0,0,0,0,0,0,0,0,0,0,0,0,0,0,0,0,0,0,0,0,0,0,0,0,0,0,0,0,0,0,0,0,0,0,0,0],"sum_hessian":[1.5965341E2,7.1151505E1,8.850191E1,6.340725E1,7.7442546E0,8.400383E1,4.4980755E0,6.1408203E1,1.999046E0,3.9987757E0,3.745479E0,1.9482054E1,6.4521774E1,2.499569E0,1.9985063E0,4.393002E1,1.7478184E1,2.499235E0,1.4995409E0,2.245697E0,1.499782E0,1.299531E1,6.4867435E0,1.499782E0,6.302199E1,1.2499045E0,1.2496645E0,1.5978684E1,1.4994997E0,1.1247953E1,1.7473569E0,3.988737E0,2.4980063E0,3.838669E1,2.4635305E1,6.999705E0,4.248248E0,1.2489876E0,1.2490189E0,5.7443123E0,3.2642376E1],"tree_param":{"num_deleted":"0","num_feature":"5","num_nodes":"41","size_leaf_vector":"1"}},{"base_weights":[9.261828E-4,-1.4024138E0,1.1323689E0,-1.5465335E0,-1.8095575E-1,1.2385347E0,-7.139675E-1,-1.610638E0,3.0229392E-3,-9.656499E-1,6.83836E-1,3.5018396E-1,1.4975148E0,-1.7175114E-2,-1.2892363E-2,-1.7542629E-2,-1.1743144E0,-1.1103043E-2,-3.76818E-3,1.0110087E-2,-1.4381742E-4,-8.5793346E-2,1.1186687E0,-1.4381742E-4,1.5331919E0,-2.3093452E-3,2.042428E-3,-1.3960492E-2,8.009417E-3,-2.898209E-1,8.551755E-3,1.308309E-2,5.285171E-1,1.3307891E0,1.784439E-2,-6.0832635E-3,2.5088962E-3,6.3189277E-3,1.9014461E-3,6.084807E-3,1.4360991E-2],"categories":[],"categories_nodes":[],"categories_segments":[],"categories_sizes":[],"default_left":[0,0,0,0,0,0,0,0,0,0,0,0,0,0,0,0,0,0,0,0,0,0,0,0,0,0,0,0,0,0,0,0,0,0,0,0,0,0,0,0,0],"id":7,"left_children":[1,3,5,7,9,11,13,15,-1,17,19,21,23,25,-1,-1,27,-1,-1,-1,-1,29,31,-1,33,-1,-1,-1,-1,35,-1,-1,37,39,-1,-1,-1,-1,-1,-1,-1],"loss_changes":[2.5649612E2,1.24135895E1,1.8415024E1,8.115295E0,6.5930004E0,1.9016724E1,2.1813958E0,1.8482056E0,0E0,7.341385E-3,1.0983462E0,6.956828E0,3.552948E0,2.1280088E-1,0E0,0E0,9.207619E0,0E0,0E0,0E0,0E0,2.93449E0,1.4606094E-1,0E0,8.7783813E-1,0E0,0E0,0E0,0E0,2.2618582E0,0E0,0E0,2.1967888E-3,2.1198883E0,0E0,0E0,0E0,0E0,0E0,0E0,0E0],"parents":[2147483647,0,0,1,1,2,2,3,3,4,4,5,5,6,6,7,7,9,9,10,10,11,11,12,12,13,13,16,16,21,21,22,22,24,24,29,29,32,32,33,33],"right_children":[2,4,6,8,10,12,14,16,-1,18,20,22,24,26,-1,-1,28,-1,-1,-1,-1,30,32,-1,34,-1,-1,-1,-1,36,-1,-1,38,40,-1,-1,-1,-1,-1,-1,-1],"split_conditions":[1.06E2,1E0,1.66E2,1E0,7.2E1,1.34E2,1.88E2,4.923077E0,3.0229392E-3,6.3E1,9.6E1,1E0,3.2857144E0,1.74E2,-1.2892363E-2,-1.7542629E-2,8.4E1,-1.1103043E-2,-3.76818E-3,1.0110087E-2,-1.4381742E-4,6.142857E0,1.26E2,-1.4381742E-4,1E0,-2.3093452E-3,2.042428E-3,-1.3960492E-2,8.009417E-3,1E0,8.551755E-3,1.308309E-2,4.8E0,4.111111E0,1.784439E-2,-6.0832635E-3,2.5088962E-3,6.3189277E-3,1.9014461E-3,6.084807E-3,1.4360991E-2],"split_indices":[0,4,0,3,0,0,0,2,0,0,0,3,2,0,0,0,0,0,0,0,0,2,0,0,3,0,0,0,0,4,0,0,2,2,0,0,0,0,0,0,0],"split_type":[0,0,0,0,0,0,0,0,0,0,0,0,0,0,0,0,0,0,0,0,0,0,0,0,0,0,0,0,0,0,0,0,0,0,0,0,0,0,0,0,0],"sum_hessian":[1.5954178E2,7.110724E1,8.843453E1,6.336471E1,7.7425284E0,8.393727E1,4.4972625E0,6.1365807E1,1.9989084E0,3.998104E0,3.7444243E0,1.94776E1,6.445966E1,2.4995484E0,1.9977139E0,4.3895996E1,1.7469807E1,2.498668E0,1.4994361E0,2.2446396E0,1.4997846E0,1.2994124E1,6.483476E0,1.4997846E0,6.295988E1,1.2499001E0,1.2496483E0,1.5970276E1,1.499532E0,1.1247384E1,1.7467403E0,3.9857757E0,2.4977002E0,3.835672E1,2.4603163E1,6.999361E0,4.248023E0,1.2487493E0,1.248951E0,5.74315E0,3.2613567E1],"tree_param":{"num_deleted":"0","num_feature":"5","num_nodes":"41","size_leaf_vector":"1"}},{"base_weights":[1.0799456E-3,-1.3897593E0,1.1225643E0,-1.5325954E0,-1.7974807E-1,1.2279825E0,-7.0934856E-1,-1.596204E0,3.0029363E-3,-9.5912933E-1,6.792658E-1,3.480516E-1,1.484693E0,-1.7079756E-2,-1.2810541E-2,-1.7386854E-2,-1.1635212E0,-1.102602E-2,-3.7457475E-3,1.0043768E-2,-1.429546E-4,-8.458794E-2,1.1108676E0,-1.429546E-4,1.5201043E0,-2.2964946E-3,2.031121E-3,-1.3837218E-2,7.961419E-3,-2.872312E-1,8.499475E-3,1.2987083E-2,5.2563226E-1,1.3191175E0,1.7697738E-2,-6.0303924E-3,2.4887004E-3,1.8812041E-3,6.294177E-3,6.034116E-3,1.4235225E-2],"categories":[],"categories_nodes":[],"categories_segments":[],"categories_sizes":[],"default_left":[0,0,0,0,0,0,0,0,0,0,0,0,0,0,0,0,0,0,0,0,0,0,0,0,0,0,0,0,0,0,0,0,0,0,0,0,0,0,0,0,0],"id":8,"left_children":[1,3,5,7,9,11,13,15,-1,17,19,21,23,25,-1,-1,27,-1,-1,-1,-1,29,31,-1,33,-1,-1,-1,-1,35,-1,-1,37,39,-1,-1,-1,-1,-1,-1,-1],"loss_changes":[2.517752E2,1.21779785E1,1.8127953E1,7.9775696E0,6.503286E0,1.8652817E1,2.1534069E0,1.8187103E0,0E0,6.102085E-3,1.08389E0,6.850424E0,3.4927368E0,2.1044382E-1,0E0,0E0,9.067438E0,0E0,0E0,0E0,0E0,2.894039E0,1.3962841E-1,0E0,8.715515E-1,0E0,0E0,0E0,0E0,2.223503E0,0E0,0E0,4.102409E-3,2.0794067E0,0E0,0E0,0E0,0E0,0E0,0E0,0E0],"parents":[2147483647,0,0,1,1,2,2,3,3,4,4,5,5,6,6,7,7,9,9,10,10,11,11,12,12,13,13,16,16,21,21,22,22,24,24,29,29,32,32,33,33],"right_children":[2,4,6,8,10,12,14,16,-1,18,20,22,24,26,-1,-1,28,-1,-1,-1,-1,30,32,-1,34,-1,-1,-1,-1,36,-1,-1,38,40,-1,-1,-1,-1,-1,-1,-1],"split_conditions":[1.06E2,1E0,1.66E2,1E0,7.2E1,1.34E2,1.88E2,4.923077E0,3.0029363E-3,6.3E1,9.6E1,1E0,3.2857144E0,1.74E2,-1.2810541E-2,-1.7386854E-2,8.4E1,-1.102602E-2,-3.7457475E-3,1.0043768E-2,-1.429546E-4,6.142857E0,1.26E2,-1.429546E-4,1E0,-2.2964946E-3,2.031121E-3,-1.3837218E-2,7.961419E-3,1E0,8.499475E-3,1.2987083E-2,1.2E1,4.111111E0,1.7697738E-2,-6.0303924E-3,2.4887004E-3,1.8812041E-3,6.294177E-3,6.034116E-3,1.4235225E-2],"split_indices":[0,4,0,3,0,0,0,2,0,0,0,3,2,0,0,0,0,0,0,0,0,2,0,0,3,0,0,0,0,4,0,0,1,2,0,0,0,0,0,0,0],"split_type":[0,0,0,0,0,0,0,0,0,0,0,0,0,0,0,0,0,0,0,0,0,0,0,0,0,0,0,0,0,0,0,0,0,0,0,0,0,0,0,0,0],"sum_hessian":[1.5941441E2,7.105474E1,8.835968E1,6.3314205E1,7.7405343E0,8.386339E1,4.496287E0,6.131544E1,1.9987627E0,3.997272E0,3.7432623E0,1.9472607E1,6.4390785E1,2.4995267E0,1.9967604E0,4.3855537E1,1.7459902E1,2.4979508E0,1.4993211E0,2.2434752E0,1.4997871E0,1.299274E1,6.479866E0,1.4997871E0,6.2891E1,1.2499211E0,1.2496057E0,1.5960386E1,1.4995158E0,1.12466755E1,1.746064E0,3.9824975E0,2.4973686E0,3.832357E1,2.4567427E1,6.9988894E0,4.2477865E0,1.2488098E0,1.2485588E0,5.741891E0,3.258168E1],"tree_param":{"num_deleted":"0","num_feature":"5","num_nodes":"41","size_leaf_vector":"1"}},{"base_weights":[1.2315565E-3,-1.3773732E0,1.1129372E0,-1.518967E0,-1.7855379E-1,1.2176251E0,-7.0478135E-1,-1.5820974E0,2.9830744E-3,-9.5268357E-1,6.7474204E-1,3.4594136E-1,1.472132E0,-1.69849E-2,-1.2729926E-2,-1.723489E-2,-1.1529198E0,-1.0950001E-2,-3.7234628E-3,9.978222E-3,-1.4209608E-4,-8.339719E-2,1.1031723E0,-1.4209608E-4,1.5072865E0,-2.2933611E-3,2.0294737E-3,-1.3716209E-2,7.91386E-3,-2.84668E-1,8.447706E-3,1.2892605E-2,5.227664E-1,1.3076527E0,1.7554747E-2,-5.9780767E-3,2.468672E-3,6.2600067E-3,1.8708187E-3,5.983933E-3,1.4111838E-2],"categories":[],"categories_nodes":[],"categories_segments":[],"categories_sizes":[],"default_left":[0,0,0,0,0,0,0,0,0,0,0,0,0,0,0,0,0,0,0,0,0,0,0,0,0,0,0,0,0,0,0,0,0,0,0,0,0,0,0,0,0],"id":9,"left_children":[1,3,5,7,9,11,13,15,-1,17,19,21,23,25,-1,-1,27,-1,-1,-1,-1,29,31,-1,33,-1,-1,-1,-1,35,-1,-1,37,39,-1,-1,-1,-1,-1,-1,-1],"loss_changes":[2.4716595E2,1.1949478E1,1.7847069E1,7.8437347E0,6.414987E0,1.829966E1,2.1259575E0,1.790863E0,0E0,4.9324036E-3,1.0696831E0,6.746024E0,3.4342651E0,2.0997986E-1,0E0,0E0,8.930195E0,0E0,0E0,0E0,0E0,2.854211E0,1.3346863E-1,0E0,8.663025E-1,0E0,0E0,0E0,0E0,2.1858344E0,0E0,0E0,4.072845E-3,2.0404358E0,0E0,0E0,0E0,0E0,0E0,0E0,0E0],"parents":[2147483647,0,0,1,1,2,2,3,3,4,4,5,5,6,6,7,7,9,9,10,10,11,11,12,12,13,13,16,16,21,21,22,22,24,24,29,29,32,32,33,33],"right_children":[2,4,6,8,10,12,14,16,-1,18,20,22,24,26,-1,-1,28,-1,-1,-1,-1,30,32,-1,34,-1,-1,-1,-1,36,-1,-1,38,40,-1,-1,-1,-1,-1,-1,-1],"split_conditions":[1.06E2,1E0,1.66E2,1E0,7.2E1,1.34E2,1.88E2,4.923077E0,2.9830744E-3,6.3E1,9.6E1,1E0,3.2857144E0,5.05E0,-1.2729926E-2,-1.723489E-2,8.4E1,-1.0950001E-2,-3.7234628E-3,9.978222E-3,-1.4209608E-4,6.142857E0,1.26E2,-1.4209608E-4,1E0,-2.2933611E-3,2.0294737E-3,-1.3716209E-2,7.91386E-3,1E0,8.447706E-3,1.2892605E-2,4.8E0,4.111111E0,1.7554747E-2,-5.9780767E-3,2.468672E-3,6.2600067E-3,1.8708187E-3,5.983933E-3,1.4111838E-2],"split_indices":[0,4,0,3,0,0,0,2,0,0,0,3,2,2,0,0,0,0,0,0,0,2,0,0,3,0,0,0,0,4,0,0,2,2,0,0,0,0,0,0,0],"split_type":[0,0,0,0,0,0,0,0,0,0,0,0,0,0,0,0,0,0,0,0,0,0,0,0,0,0,0,0,0,0,0,0,0,0,0,0,0,0,0,0,0],"sum_hessian":[1.5927184E2,7.099425E1,8.827758E1,6.325597E1,7.7382784E0,8.378243E1,4.4951487E0,6.1257362E1,1.998609E0,3.9962828E0,3.7419956E0,1.9467089E1,6.4315346E1,2.4994993E0,1.9956495E0,4.380885E1,1.7448513E1,2.4970863E0,1.4991965E0,2.2422059E0,1.4997897E0,1.2991161E1,6.4759274E0,1.4997897E0,6.281555E1,1.2499129E0,1.2495863E0,1.594906E1,1.499452E0,1.1245832E1,1.7453288E0,3.9789107E0,2.4970164E0,3.8287346E1,2.4528208E1,6.998294E0,4.2475386E0,1.24828E0,1.2487364E0,5.740538E0,3.2546806E1],"tree_param":{"num_deleted":"0","num_feature":"5","num_nodes":"41","size_leaf_vector":"1"}},{"base_weights":[1.3810305E-3,-1.3652465E0,1.1034822E0,-1.5056376E0,-1.7737265E-1,1.2074562E0,-7.002644E-1,-1.5683063E0,2.9633522E-3,-9.46311E-1,6.702639E-1,3.4385318E-1,1.459823E0,-1.6890561E-2,-1.2650491E-2,-1.7086593E-2,-1.1425041E0,-1.08749615E-2,-3.7013267E-3,9.9134315E-3,-1.4124328E-4,-8.2220316E-2,1.095581E0,-1.4124328E-4,1.4947298E0,-2.2806034E-3,2.0182414E-3,-1.3597392E0,7.866732E-3,-2.821302E-1,8.396435E-3,1.2799616E-2,5.199201E-1,1.2963884E0,1.7415278E-2,-7.2182766E-3,-1.4576667E-2,-5.9263003E-3,2.4488135E-3,1.8508113E-3,6.2356177E-3,5.9342473E-3,1.3990755E-2],"categories":[],"categories_nodes":[],"categories_segments":[],"categories_sizes":[],"default_left":[0,0,0,0,0,0,0,0,0,0,0,0,0,0,0,0,0,0,0,0,0,0,0,0,0,0,0,0,0,0,0,0,0,0,0,0,0,0,0,0,0,0,0],"id":10,"left_children":[1,3,5,7,9,11,13,15,-1,17,19,21,23,25,-1,-1,27,-1,-1,-1,-1,29,31,-1,33,-1,-1,35,-1,37,-1,-1,39,41,-1,-1,-1,-1,-1,-1,-1,-1,-1],"loss_changes":[2.4266483E2,1.1727829E1,1.757219E1,7.7135773E0,6.3280783E0,1.7956787E1,2.099036E0,1.7646027E0,0E0,3.8256645E-3,1.0557206E0,6.6435785E0,3.3774261E0,2.076544E-1,0E0,0E0,8.795792E0,0E0,0E0,0E0,0E0,2.8149898E0,1.2757015E-1,0E0,8.6209106E-1,0E0,0E0,5.8135986E-3,0E0,2.1488357E0,0E0,0E0,5.9353113E-3,2.0028992E0,0E0,0E0,0E0,0E0,0E0,0E0,0E0,0E0,0E0],"parents":[2147483647,0,0,1,1,2,2,3,3,4,4,5,5,6,6,7,7,9,9,10,10,11,11,12,12,13,13,16,16,21,21,22,22,24,24,27,27,29,29,32,32,33,33],"right_children":[2,4,6,8,10,12,14,16,-1,18,20,22,24,26,-1,-1,28,-1,-1,-1,-1,30,32,-1,34,-1,-1,36,-1,38,-1,-1,40,42,-1,-1,-1,-1,-1,-1,-1,-1,-1],"split_conditions":[1.06E2,1E0,1.66E2,1E0,7.2E1,1.34E2,1.88E2,4.923077E0,2.9633522E-3,6.3E1,9.6E1,1E0,3.2857144E0,5.05E0,-1.2650491E-2,-1.7086593E-2,8.4E1,-1.08749615E-2,-3.7013267E-3,9.9134315E-3,-1.4124328E-4,6.142857E0,1.26E2,-1.4124328E-4,1E0,-2.2806034E-3,2.0182414E-3,5.05E0,7.866732E-3,1E0,8.396435E-3,1.2799616E-2,1.2E1,4.111111E0,1.7415278E-2,-7.2182766E-3,-1.4576667E-2,-5.9263003E-3,2.4488135E-3,1.8508113E-3,6.2356177E-3,5.9342473E-3,1.3990755E-2],"split_indices":[0,4,0,3,0,0,0,2,0,0,0,3,2,2,0,0,0,0,0,0,0,2,0,0,3,0,0,2,0,4,0,0,1,2,0,0,0,0,0,0,0,0,0],"split_type":[0,0,0,0,0,0,0,0,0,0,0,0,0,0,0,0,0,0,0,0,0,0,0,0,0,0,0,0,0,0,0,0,0,0,0,0,0,0,0,0,0,0,0],"sum_hessian":[1.5911447E2,7.092602E1,8.818845E1,6.3190254E1,7.7357664E0,8.3694595E1,4.493855E0,6.1191807E1,1.9984472E0,3.9951406E0,3.7406259E0,1.9461058E1,6.423354E1,2.4994705E0,1.9943843E0,4.3756123E1,1.7435684E1,2.4960785E0,1.4990621E0,2.2408338E0,1.4997922E0,1.2989394E1,6.471663E0,1.4997922E0,6.273375E1,1.2499295E0,1.249541E0,1.5936342E1,1.4993417E0,1.1244858E1,1.7445362E0,3.9750233E0,2.4966397E0,3.8248135E1,2.4485613E1,3.2348948E0,1.27014475E1,6.9975786E0,4.2472796E0,1.2485814E0,1.2480583E0,5.739093E0,3.250904E1],"tree_param":{"num_deleted":"0","num_feature":"5","num_nodes":"43","size_leaf_vector":"1"}},{"base_weights":[1.4771663E-3,-1.3534714E0,1.0941938E0,-1.5996752E0,-6.427602E-1,1.1974698E0,-6.9579744E-1,-1.6301114E-2,-3.3403374E-3,-1.3247147E0,8.227584E-2,3.417862E-1,1.4477576E0,-1.6796773E-2,-1.2572206E-2,-1.5493472E-2,1.84064E-3,-2.263218E-1,7.852466E-3,-8.105784E-2,1.0880908E0,-1.403962E-4,1.482425E0,-2.2774865E-3,2.0165935E-3,3.6010134E-1,-9.392604E-1,-2.7961838E-1,8.345657E-3,1.2708078E-2,5.1709235E-1,1.2853181E0,1.727921E-2,-6.291742E-4,6.97487E-3,-1.1978577E-2,-2.0573512E-3,-5.8750636E-3,2.4291158E-3,1.8405981E-3,6.20188E-3,5.885057E-3,1.38719E-2],"categories":[],"categories_nodes":[],"categories_segments":[],"categories_sizes":[],"default_left":[0,0,0,0,0,0,0,0,0,0,0,0,0,0,0,0,0,0,0,0,0,0,0,0,0,0,0,0,0,0,0,0,0,0,0,0,0,0,0,0,0,0,0],"id":11,"left_children":[1,3,5,7,9,11,13,-1,-1,15,17,19,21,23,-1,-1,-1,25,-1,27,29,-1,31,-1,-1,33,35,37,-1,-1,39,41,-1,-1,-1,-1,-1,-1,-1,-1,-1,-1,-1],"loss_changes":[2.3828926E2,1.15442505E1,1.7303116E1,1.4852753E0,1.0076027E1,1.7623726E1,2.0726247E0,0E0,0E0,3.8256054E0,2.5015244E0,6.543042E0,3.322174E0,2.071947E-1,0E0,0E0,0E0,3.775029E0,0E0,2.7763712E0,1.21925354E-1,0E0,8.588257E-1,0E0,0E0,7.9077494E-1,5.0986624E-1,2.1124964E0,0E0,0E0,5.889058E-3,1.9666901E0,0E0,0E0,0E0,0E0,0E0,0E0,0E0,0E0,0E0,0E0,0E0],"parents":[2147483647,0,0,1,1,2,2,3,3,4,4,5,5,6,6,9,9,10,10,11,11,12,12,13,13,17,17,19,19,20,20,22,22,25,25,26,26,27,27,30,30,31,31],"right_children":[2,4,6,8,10,12,14,-1,-1,16,18,20,22,24,-1,-1,-1,26,-1,28,30,-1,32,-1,-1,34,36,38,-1,-1,40,42,-1,-1,-1,-1,-1,-1,-1,-1,-1,-1,-1],"split_conditions":[1.06E2,7.2E1,1.66E2,7.25E0,4.3846154E0,1.34E2,1.88E2,-1.6301114E-2,-3.3403374E-3,1E0,1E0,1E0,3.2857144E0,1.74E2,-1.2572206E-2,-1.5493472E-2,1.84064E-3,8E0,7.852466E-3,6.142857E0,1.26E2,-1.403962E-4,1E0,-2.2774865E-3,2.0165935E-3,8.1E1,4.923077E0,1E0,8.345657E-3,1.2708078E-2,1.2E1,4.111111E0,1.727921E-2,-6.291742E-4,6.97487E-3,-1.1978577E-2,-2.0573512E-3,-5.8750636E-3,2.4291158E-3,1.8405981E-3,6.20188E-3,5.885057E-3,1.38719E-2],"split_indices":[0,0,0,2,2,0,0,0,0,4,4,3,2,0,0,0,0,1,0,2,0,0,3,0,0,0,2,4,0,0,1,2,0,0,0,0,0,0,0,0,0,0,0],"split_type":[0,0,0,0,0,0,0,0,0,0,0,0,0,0,0,0,0,0,0,0,0,0,0,0,0,0,0,0,0,0,0,0,0,0,0,0,0,0,0,0,0,0,0],"sum_hessian":[1.5894347E2,7.085095E1,8.809251E1,5.169279E1,1.9158163E1,8.3600105E1,4.4924045E0,5.0197662E1,1.4951309E0,9.446176E0,9.711987E0,1.945453E1,6.414558E1,2.4994361E0,1.9929683E0,8.198643E0,1.2475333E0,7.2203636E0,2.491623E0,1.2987443E1,6.467087E0,1.4997947E0,6.2645782E1,1.2499177E0,1.2495185E0,4.2332425E0,2.987121E0,1.1243756E1,1.7436873E0,3.9708433E0,2.4962435E0,3.8206036E1,2.4439747E1,2.2392077E0,1.9940346E0,1.7405071E0,1.246614E0,6.9967456E0,4.24701E0,1.2485029E0,1.2477406E0,5.73756E0,3.2468475E1],"tree_param":{"num_deleted":"0","num_feature":"5","num_nodes":"43","size_leaf_vector":"1"}},{"base_weights":[1.5686533E-3,-1.3418452E0,1.085067E0,-1.480383E0,-1.7169982E-1,1.1876605E0,-6.9137895E-1,-1.5426147E0,3.0088907E-3,-9.281185E-1,6.613758E-1,3.3974037E-1,1.4359277E0,-1.6703553E-2,-1.2495049E-2,-1.6813051E-2,-1.1224647E0,-1.0690668E-2,-3.595475E-3,9.807466E-3,-1.694789E-4,-7.990902E-2,1.0806997E0,-1.3955342E-4,1.470364E0,-2.264823E-3,2.005436E-3,-1.3373655E0,7.8052743E-3,-1.0958851E-2,1.0578748E-1,1.2617952E-2,5.1428396E-1,1.274436E0,1.7146422E-2,-7.065571E-3,-1.4346668E-2,-8.44075E-4,8.295367E-3,6.1778263E-3,1.8208424E-3,5.8363513E-3,1.37552E-2],"categories":[],"categories_nodes":[],"categories_segments":[],"categories_sizes":[],"default_left":[0,0,0,0,0,0,0,0,0,0,0,0,0,0,0,0,0,0,0,0,0,0,0,0,0,0,0,0,0,0,0,0,0,0,0,0,0,0,0,0,0,0,0],"id":12,"left_children":[1,3,5,7,9,11,13,15,-1,17,19,21,23,25,-1,-1,27,-1,-1,-1,-1,29,31,-1,33,-1,-1,35,-1,-1,37,-1,39,41,-1,-1,-1,-1,-1,-1,-1,-1,-1],"loss_changes":[2.3400616E2,1.13810425E1,1.7039696E1,7.5635986E0,6.114593E0,1.7300125E1,2.0467129E0,1.7282715E0,0E0,1.5610218E-2,1.0430524E0,6.444371E0,3.2684631E0,2.0490067E-1,0E0,0E0,8.571409E0,0E0,0E0,0E0,0E0,2.7544448E0,1.1651707E-1,0E0,8.564606E-1,0E0,0E0,2.409172E-2,0E0,0E0,1.8231882E0,0E0,7.7056885E-3,1.9317856E0,0E0,0E0,0E0,0E0,0E0,0E0,0E0,0E0,0E0],"parents":[2147483647,0,0,1,1,2,2,3,3,4,4,5,5,6,6,7,7,9,9,10,10,11,11,12,12,13,13,16,16,21,21,22,22,24,24,27,27,30,30,32,32,33,33],"right_children":[2,4,6,8,10,12,14,16,-1,18,20,22,24,26,-1,-1,28,-1,-1,-1,-1,30,32,-1,34,-1,-1,36,-1,-1,38,-1,40,42,-1,-1,-1,-1,-1,-1,-1,-1,-1],"split_conditions":[1.06E2,1E0,1.66E2,1E0,7.2E1,1.34E2,1.88E2,4.923077E0,3.0088907E-3,6.3E1,9.6E1,1E0,3.2857144E0,5.05E0,-1.2495049E-2,-1.6813051E-2,8.4E1,-1.0690668E-2,-3.595475E-3,9.807466E-3,-1.694789E-4,3.7142856E0,1.26E2,-1.3955342E-4,1E0,-2.264823E-3,2.005436E-3,5.05E0,7.8052743E-3,-1.0958851E-2,6.142857E0,1.2617952E-2,4.8E0,4.111111E0,1.7146422E-2,-7.065571E-3,-1.4346668E-2,-8.44075E-4,8.295367E-3,6.1778263E-3,1.8208424E-3,5.8363513E-3,1.37552E-2],"split_indices":[0,4,0,3,0,0,0,2,0,0,0,3,2,2,0,0,0,0,0,0,0,2,0,0,3,0,0,2,0,0,2,0,2,2,0,0,0,0,0,0,0,0,0],"split_type":[0,0,0,0,0,0,0,0,0,0,0,0,0,0,0,0,0,0,0,0,0,0,0,0,0,0,0,0,0,0,0,0,0,0,0,0,0,0,0,0,0,0,0],"sum_hessian":[1.5876389E2,7.077391E1,8.798997E1,6.304468E1,7.729228E0,8.349916E1,4.4908056E0,6.1045925E1,1.9987587E0,3.9911995E0,3.7380288E0,1.9447515E1,6.405165E1,2.4994006E0,1.9914049E0,4.3639095E1,1.7406828E1,2.4929338E0,1.4982656E0,2.2383313E0,1.4996974E0,1.2985313E1,6.4622016E0,1.4997971E0,6.255185E1,1.2499301E0,1.2494706E0,1.5907642E1,1.4991864E0,1.2492076E0,1.1736106E1,3.9663785E0,2.4958231E0,3.8161137E1,2.4390713E1,3.2298594E0,1.2677783E1,9.993322E0,1.7427832E0,1.2474886E0,1.2483346E0,5.73594E0,3.2425198E1],"tree_param":{"num_deleted":"0","num_feature":"5","num_nodes":"43","size_leaf_vector":"1"}},{"base_weights":[1.6113059E-3,-1.3305289E0,1.0759895E0,-1.5736438E0,-6.2951523E-1,1.177908E0,-6.870088E-1,-1.6038155E-2,-3.2471137E-3,-1.3033656E0,8.560487E-2,3.3728695E-1,1.4243258E0,-1.6610783E-2,-1.2418995E-2,-1.5248103E-2,1.8096301E-3,-2.1783985E-1,7.753096E-3,-7.936744E-2,1.0734049E0,-1.3871636E-4,1.4585387E0,-2.2617439E-3,2.0038092E-3,3.6459E-1,-9.279883E-1,-1.0899105E-2,1.0532318E-1,1.2529204E-2,5.1149374E-1,1.2637362E0,1.7016802E-2,-5.3345406E-4,6.9477325E-3,-1.18293315E-2,-2.0409396E-3,-8.3640404E-4,8.245551E-3,1.8108004E-3,6.144513E-3,5.788124E-3,1.3640591E-2],"categories":[],"categories_nodes":[],"categories_segments":[],"categories_sizes":[],"default_left":[0,0,0,0,0,0,0,0,0,0,0,0,0,0,0,0,0,0,0,0,0,0,0,0,0,0,0,0,0,0,0,0,0,0,0,0,0,0,0,0,0,0,0],"id":13,"left_children":[1,3,5,7,9,11,13,-1,-1,15,17,19,21,23,-1,-1,-1,25,-1,27,29,-1,31,-1,-1,33,35,-1,37,-1,39,41,-1,-1,-1,-1,-1,-1,-1,-1,-1,-1,-1],"loss_changes":[2.2980782E2,1.122644E1,1.6779755E1,1.4597626E0,9.809885E0,1.7001099E1,2.0212874E0,0E0,0E0,3.7021198E0,2.4087458E0,6.354622E0,3.2162018E0,2.0444942E-1,0E0,0E0,0E0,3.735324E0,0E0,2.7247534E0,1.1134148E-1,0E0,8.549042E-1,0E0,0E0,7.5880456E-1,4.936087E-1,0E0,1.7997782E0,0E0,7.6431036E-3,1.8980942E0,0E0,0E0,0E0,0E0,0E0,0E0,0E0,0E0,0E0,0E0,0E0],"parents":[2147483647,0,0,1,1,2,2,3,3,4,4,5,5,6,6,9,9,10,10,11,11,12,12,13,13,17,17,19,19,20,20,22,22,25,25,26,26,28,28,30,30,31,31],"right_children":[2,4,6,8,10,12,14,-1,-1,16,18,20,22,24,-1,-1,-1,26,-1,28,30,-1,32,-1,-1,34,36,-1,38,-1,40,42,-1,-1,-1,-1,-1,-1,-1,-1,-1,-1,-1],"split_conditions":[1.06E2,7.2E1,1.66E2,7.25E0,4.3846154E0,1.34E2,1.88E2,-1.6038155E-2,-3.2471137E-3,1E0,1E0,1E0,3.2857144E0,1.74E2,-1.2418995E-2,-1.5248103E-2,1.8096301E-3,8E0,7.753096E-3,3.7142856E0,1.26E2,-1.3871636E-4,1E0,-2.2617439E-3,2.0038092E-3,8.1E1,4.923077E0,-1.0899105E-2,6.142857E0,1.2529204E-2,1.2E1,4.111111E0,1.7016802E-2,-5.3345406E-4,6.9477325E-3,-1.18293315E-2,-2.0409396E-3,-8.3640404E-4,8.245551E-3,1.8108004E-3,6.144513E-3,5.788124E-3,1.3640591E-2],"split_indices":[0,0,0,2,2,0,0,0,0,4,4,3,2,0,0,0,0,1,0,2,0,0,3,0,0,0,2,0,2,0,1,2,0,0,0,0,0,0,0,0,0,0,0],"split_type":[0,0,0,0,0,0,0,0,0,0,0,0,0,0,0,0,0,0,0,0,0,0,0,0,0,0,0,0,0,0,0,0,0,0,0,0,0,0,0,0,0,0,0],"sum_hessian":[1.5856723E2,7.068511E1,8.788212E1,5.1559288E1,1.9125826E1,8.339306E1,4.4890566E0,5.0065655E1,1.4936361E0,9.423538E0,9.702288E0,1.9441114E1,6.3951946E1,2.4993598E0,1.9896969E0,8.176435E0,1.2471029E0,7.212991E0,2.489296E0,1.2984093E1,6.4570208E0,1.4997995E0,6.245215E1,1.2499146E0,1.2494452E0,4.2301908E0,2.9828005E0,1.2489778E0,1.1735115E1,3.9616365E0,2.4953842E0,3.8113533E1,2.4338615E1,2.2370462E0,1.9931446E0,1.7369486E0,1.2458518E0,9.99329E0,1.7418252E0,1.2482512E0,1.2471329E0,5.734236E0,3.2379295E1],"tree_param":{"num_deleted":"0","num_feature":"5","num_nodes":"43","size_leaf_vector":"1"}},{"base_weights":[1.6494865E-3,-1.319348E0,1.0670645E0,-1.4561476E0,-1.6617374E-1,1.1683223E0,-6.826855E-1,-1.5179877E0,3.0531303E-3,-9.1044134E-1,6.5264696E-1,3.3485892E-1,1.4129443E0,-1.6518561E-2,-1.2344017E-2,-1.6551685E-2,-1.1030934E0,-1.0512034E-2,-3.4919938E-3,9.703597E-3,-1.971553E-4,-7.883078E-2,1.0662049E0,-1.3788362E-4,1.4469413E0,-2.2491706E-3,1.9927246E-3,-1.3157758E0,7.7445065E-3,-1.0840042E-2,1.0486063E-1,1.2441793E-2,5.087224E-1,1.2532135E0,1.6890239E-2,-6.9168196E-3,-1.4125186E-2,-8.288042E-4,8.196207E-3,6.120806E-3,1.7912725E-3,5.7403687E-3,1.3528002E-2],"categories":[],"categories_nodes":[],"categories_segments":[],"categories_sizes":[],"default_left":[0,0,0,0,0,0,0,0,0,0,0,0,0,0,0,0,0,0,0,0,0,0,0,0,0,0,0,0,0,0,0,0,0,0,0,0,0,0,0,0,0,0,0],"id":14,"left_children":[1,3,5,7,9,11,13,15,-1,17,19,21,23,25,-1,-1,27,-1,-1,-1,-1,29,31,-1,33,-1,-1,35,-1,-1,37,-1,39,41,-1,-1,-1,-1,-1,-1,-1,-1,-1],"loss_changes":[2.2569687E2,1.1052368E1,1.6525162E1,7.4211426E0,5.9091635E0,1.671035E1,1.9963355E0,1.6958008E0,0E0,2.6837349E-2,1.030643E0,6.26645E0,3.1653137E0,2.021859E-1,0E0,0E0,8.35564E0,0E0,0E0,0E0,0E0,2.6954672E0,1.0638332E-1,0E0,8.5414124E-1,0E0,0E0,4.1772842E-2,0E0,0E0,1.7767127E0,0E0,9.419024E-3,1.8655739E0,0E0,0E0,0E0,0E0,0E0,0E0,0E0,0E0,0E0],"parents":[2147483647,0,0,1,1,2,2,3,3,4,4,5,5,6,6,7,7,9,9,10,10,11,11,12,12,13,13,16,16,21,21,22,22,24,24,27,27,30,30,32,32,33,33],"right_children":[2,4,6,8,10,12,14,16,-1,18,20,22,24,26,-1,-1,28,-1,-1,-1,-1,30,32,-1,34,-1,-1,36,-1,-1,38,-1,40,42,-1,-1,-1,-1,-1,-1,-1,-1,-1],"split_conditions":[1.06E2,1E0,1.66E2,1E0,7.2E1,1.34E2,1.88E2,4.923077E0,3.0531303E-3,6.3E1,9.6E1,1E0,3.2857144E0,1.74E2,-1.2344017E-2,-1.6551685E-2,8.4E1,-1.0512034E-2,-3.4919938E-3,9.703597E-3,-1.971553E-4,3.7142856E0,1.26E2,-1.3788362E-4,1E0,-2.2491706E-3,1.9927246E-3,5.05E0,7.7445065E-3,-1.0840042E-2,6.142857E0,1.2441793E-2,4.8E0,4.111111E0,1.6890239E-2,-6.9168196E-3,-1.4125186E-2,-8.288042E-4,8.196207E-3,6.120806E-3,1.7912725E-3,5.7403687E-3,1.3528002E-2],"split_indices":[0,4,0,3,0,0,0,2,0,0,0,3,2,0,0,0,0,0,0,0,0,2,0,0,3,0,0,2,0,0,2,0,2,2,0,0,0,0,0,0,0,0,0],"split_type":[0,0,0,0,0,0,0,0,0,0,0,0,0,0,0,0,0,0,0,0,0,0,0,0,0,0,0,0,0,0,0,0,0,0,0,0,0,0,0,0,0,0,0],"sum_hessian":[1.583629E2,7.059479E1,8.776811E1,6.2873463E1,7.721328E0,8.3280945E1,4.4871655E0,6.0874542E1,1.9989202E0,3.9861872E0,3.7351406E0,1.9434292E1,6.3846657E1,2.4993176E0,1.9878478E0,4.3501743E1,1.73728E1,2.4889507E0,1.4972364E0,2.2355587E0,1.4995818E0,1.2982744E1,6.4515467E0,1.499802E0,6.234685E1,1.249923E0,1.2493947E0,1.5873863E1,1.4989381E0,1.2486751E0,1.1734069E1,3.9566247E0,2.494922E0,3.8063305E1,2.4283548E1,3.2241812E0,1.2649682E1,9.993255E0,1.7408146E0,1.2468518E0,1.2480702E0,5.7324505E0,3.2330853E1],"tree_param":{"num_deleted":"0","num_feature":"5","num_nodes":"43","size_leaf_vector":"1"}},{"base_weights":[1.6924673E-3,-1.3084611E0,1.0582877E0,-1.5486832E0,-6.166713E-1,1.1588987E0,-6.784087E-1,-1.57862E-2,-3.155864E-3,-1.2828268E0,8.8835515E-2,3.3245587E-1,1.4017761E0,-1.6426856E-2,-1.227009E-2,-1.5012751E-2,1.7791489E-3,-2.0957433E-1,7.6555638E-3,-7.82989E-2,1.0590967E0,-1.3705659E-4,1.4355645E0,-2.2461093E-3,1.9910987E-3,3.6894283E-1,-9.170503E-1,-1.0781652E-2,1.04399994E-1,1.235569E-2,5.05969E-1,1.2428622E0,1.6766628E-2,-4.398751E-4,6.9204676E-3,-1.1684852E-2,-2.0249998E-3,-8.2127244E-4,8.147322E-3,6.0879085E-3,1.7813976E-3,5.6930757E-3,1.34173725E-2],"categories":[],"categories_nodes":[],"categories_segments":[],"categories_sizes":[],"default_left":[0,0,0,0,0,0,0,0,0,0,0,0,0,0,0,0,0,0,0,0,0,0,0,0,0,0,0,0,0,0,0,0,0,0,0,0,0,0,0,0,0,0,0],"id":15,"left_children":[1,3,5,7,9,11,13,-1,-1,15,17,19,21,23,-1,-1,-1,25,-1,27,29,-1,31,-1,-1,33,35,-1,37,-1,39,41,-1,-1,-1,-1,-1,-1,-1,-1,-1,-1,-1],"loss_changes":[2.2168423E2,1.0925926E1,1.6275764E1,1.4363327E0,9.555191E0,1.642752E1,1.9718435E0,0E0,0E0,3.584835E0,2.319469E0,6.179816E0,3.1158218E0,2.0173913E-1,0E0,0E0,0E0,3.696421E0,0E0,2.6665816E0,1.0163689E-1,0E0,8.5409546E-1,0E0,0E0,7.2780406E-1,4.7805667E-1,0E0,1.7539829E0,0E0,9.340882E-3,1.8341522E0,0E0,0E0,0E0,0E0,0E0,0E0,0E0,0E0,0E0,0E0,0E0],"parents":[2147483647,0,0,1,1,2,2,3,3,4,4,5,5,6,6,9,9,10,10,11,11,12,12,13,13,17,17,19,19,20,20,22,22,25,25,26,26,28,28,30,30,31,31],"right_children":[2,4,6,8,10,12,14,-1,-1,16,18,20,22,24,-1,-1,-1,26,-1,28,30,-1,32,-1,-1,34,36,-1,38,-1,40,42,-1,-1,-1,-1,-1,-1,-1,-1,-1,-1,-1],"split_conditions":[1.06E2,7.2E1,1.66E2,7.25E0,4.3846154E0,1.34E2,1.88E2,-1.57862E-2,-3.155864E-3,1E0,1E0,1E0,3.2857144E0,5.05E0,-1.227009E-2,-1.5012751E-2,1.7791489E-3,8E0,7.6555638E-3,3.7142856E0,1.26E2,-1.3705659E-4,1E0,-2.2461093E-3,1.9910987E-3,8.1E1,4.923077E0,-1.0781652E-2,6.142857E0,1.235569E-2,4.8E0,4.111111E0,1.6766628E-2,-4.398751E-4,6.9204676E-3,-1.1684852E-2,-2.0249998E-3,-8.2127244E-4,8.147322E-3,6.0879085E-3,1.7813976E-3,5.6930757E-3,1.34173725E-2],"split_indices":[0,0,0,2,2,0,0,0,0,4,4,3,2,2,0,0,0,1,0,2,0,0,3,0,0,0,2,0,2,0,2,2,0,0,0,0,0,0,0,0,0,0,0],"split_type":[0,0,0,0,0,0,0,0,0,0,0,0,0,0,0,0,0,0,0,0,0,0,0,0,0,0,0,0,0,0,0,0,0,0,0,0,0,0,0,0,0,0,0],"sum_hessian":[1.5814124E2,7.049308E1,8.764815E1,5.140438E1,1.9088697E1,8.316302E1,4.4851313E0,4.9912403E1,1.4919764E0,9.397274E0,9.691424E0,1.9427061E1,6.373596E1,2.49927E0,1.9858611E0,8.15063E0,1.2466443E0,7.2047114E0,2.4867125E0,1.2981269E1,6.445792E0,1.4998044E0,6.2236153E1,1.2499039E0,1.2493662E0,4.226845E0,2.9778666E0,1.2483006E0,1.1732967E1,3.9513505E0,2.4944415E0,3.801054E1,2.4225615E1,2.234715E0,1.99213E0,1.7328429E0,1.2450237E0,9.993216E0,1.739752E0,1.2464594E0,1.2479821E0,5.730586E0,3.2279953E1],"tree_param":{"num_deleted":"0","num_feature":"5","num_nodes":"43","size_leaf_vector":"1"}},{"base_weights":[1.7304812E-3,-1.2976977E0,1.0496547E0,-1.4328653E0,-1.607873E-1,1.1496321E0,-6.741771E-1,-1.4943563E0,3.096124E-3,-8.9325124E-1,6.4407295E-1,3.3007735E-1,1.3908144E0,-1.6335648E-2,-1.2197193E-2,-1.6301682E-2,-1.0843519E0,-1.0338752E-2,-3.3907807E-3,9.601757E-3,-2.2428161E-4,-7.7771835E-2,1.0520791E0,-1.3623385E-4,1.4244013E0,-2.2336273E-3,1.9800873E-3,-1.2949234E0,7.6844194E-3,-1.0723922E-2,1.0394109E-1,1.2270857E-2,5.0323397E-1,1.2326776E0,1.6645871E-2,-6.7718225E-3,-1.3911714E-2,-8.1381015E-4,8.098892E-3,1.7621132E-3,6.0645235E-3,5.64624E-3,1.3308642E-2],"categories":[],"categories_nodes":[],"categories_segments":[],"categories_sizes":[],"default_left":[0,0,0,0,0,0,0,0,0,0,0,0,0,0,0,0,0,0,0,0,0,0,0,0,0,0,0,0,0,0,0,0,0,0,0,0,0,0,0,0,0,0,0],"id":16,"left_children":[1,3,5,7,9,11,13,15,-1,17,19,21,23,25,-1,-1,27,-1,-1,-1,-1,29,31,-1,33,-1,-1,35,-1,-1,37,-1,39,41,-1,-1,-1,-1,-1,-1,-1,-1,-1],"loss_changes":[2.1775389E2,1.074041E1,1.6031387E1,7.2855835E0,5.711395E0,1.6152328E1,1.9478016E0,1.6668243E0,0E0,3.753996E-2,1.0184807E0,6.094686E0,3.0675735E0,1.99506E-1,0E0,0E0,8.1479645E0,0E0,0E0,0E0,0E0,2.6380863E0,9.708977E-2,0E0,8.547516E-1,0E0,0E0,5.888939E-2,0E0,0E0,1.7315848E0,0E0,1.1073291E-2,1.8037949E0,0E0,0E0,0E0,0E0,0E0,0E0,0E0,0E0,0E0],"parents":[2147483647,0,0,1,1,2,2,3,3,4,4,5,5,6,6,7,7,9,9,10,10,11,11,12,12,13,13,16,16,21,21,22,22,24,24,27,27,30,30,32,32,33,33],"right_children":[2,4,6,8,10,12,14,16,-1,18,20,22,24,26,-1,-1,28,-1,-1,-1,-1,30,32,-1,34,-1,-1,36,-1,-1,38,-1,40,42,-1,-1,-1,-1,-1,-1,-1,-1,-1],"split_conditions":[1.06E2,1E0,1.66E2,1E0,7.2E1,1.34E2,1.88E2,4.923077E0,3.096124E-3,6.3E1,9.6E1,1E0,3.2857144E0,1.74E2,-1.2197193E-2,-1.6301682E-2,8.4E1,-1.0338752E-2,-3.3907807E-3,9.601757E-3,-2.2428161E-4,3.7142856E0,1.26E2,-1.3623385E-4,1E0,-2.2336273E-3,1.9800873E-3,5.05E0,7.6844194E-3,-1.0723922E-2,6.142857E0,1.2270857E-2,1.2E1,4.111111E0,1.6645871E-2,-6.7718225E-3,-1.3911714E-2,-8.1381015E-4,8.098892E-3,1.7621132E-3,6.0645235E-3,5.64624E-3,1.3308642E-2],"split_indices":[0,4,0,3,0,0,0,2,0,0,0,3,2,0,0,0,0,0,0,0,0,2,0,0,3,0,0,2,0,0,2,0,1,2,0,0,0,0,0,0,0,0,0],"split_type":[0,0,0,0,0,0,0,0,0,0,0,0,0,0,0,0,0,0,0,0,0,0,0,0,0,0,0,0,0,0,0,0,0,0,0,0,0,0,0,0,0,0,0],"sum_hessian":[1.5791269E2,7.039027E1,8.752242E1,6.2678127E1,7.7121377E0,8.303946E1,4.4829607E0,6.0679188E1,1.9989395E0,3.9801638E0,3.731974E0,1.941943E1,6.362003E1,2.4992213E0,1.9837393E0,4.3345287E1,1.73339E1,2.4841757E0,1.4959881E0,2.2325275E0,1.4994465E0,1.2979669E1,6.43976E0,1.4998066E0,6.2120224E1,1.2499083E0,1.2493131E0,1.5835302E1,1.4985983E0,1.2478557E0,1.1731813E1,3.9458213E0,2.493939E0,3.7955322E1,2.4164902E1,3.2179005E0,1.2617402E1,9.993174E0,1.738639E0,1.2477889E0,1.2461499E0,5.728644E0,3.2226677E1],"tree_param":{"num_deleted":"0","num_feature":"5","num_nodes":"43","size_leaf_vector":"1"}},{"base_weights":[1.7736971E-3,-1.2872132E0,1.0411611E0,-1.5247242E0,-6.04207E-1,1.1405178E0,-6.6999066E-1,-1.5544542E-2,-3.0665144E-3,-1.2630488E0,9.1972135E-2,3.2772306E-1,1.3800527E0,-1.6245075E-2,-1.2125303E-2,-1.47867855E-2,1.7491834E-3,-2.0151596E-1,7.5598136E-3,-7.7249445E-2,1.0451493E0,-1.3541683E-4,1.4134446E0,-2.2306053E-3,1.9784824E-3,3.731652E-1,-9.064309E-1,-1.06668435E-2,1.03484094E-1,1.2187268E-2,5.005167E-1,1.2226543E0,1.6527874E-2,-3.4836002E-4,6.8930993E-3,-1.1544896E-2,-2.0095138E-3,-8.064152E-4,8.050911E-3,6.032034E-3,1.7524033E-3,5.5998554E-3,1.320175E-2],"categories":[],"categories_nodes":[],"categories_segments":[],"categories_sizes":[],"default_left":[0,0,0,0,0,0,0,0,0,0,0,0,0,0,0,0,0,0,0,0,0,0,0,0,0,0,0,0,0,0,0,0,0,0,0,0,0,0,0,0,0,0,0],"id":17,"left_children":[1,3,5,7,9,11,13,-1,-1,15,17,19,21,23,-1,-1,-1,25,-1,27,29,-1,31,-1,-1,33,35,-1,37,-1,39,41,-1,-1,-1,-1,-1,-1,-1,-1,-1,-1,-1],"loss_changes":[2.139161E2,1.0641319E1,1.5791893E1,1.4147186E0,9.311187E0,1.5884491E1,1.9241967E0,0E0,0E0,3.4733124E0,2.2335422E0,6.0110254E0,3.020584E0,1.9906758E-1,0E0,0E0,0E0,3.6582866E0,0E0,2.6099784E0,9.2736244E-2,0E0,8.560257E-1,0E0,0E0,6.977427E-1,4.6316695E-1,0E0,1.7095124E0,0E0,1.098007E-2,1.7744522E0,0E0,0E0,0E0,0E0,0E0,0E0,0E0,0E0,0E0,0E0,0E0],"parents":[2147483647,0,0,1,1,2,2,3,3,4,4,5,5,6,6,9,9,10,10,11,11,12,12,13,13,17,17,19,19,20,20,22,22,25,25,26,26,28,28,30,30,31,31],"right_children":[2,4,6,8,10,12,14,-1,-1,16,18,20,22,24,-1,-1,-1,26,-1,28,30,-1,32,-1,-1,34,36,-1,38,-1,40,42,-1,-1,-1,-1,-1,-1,-1,-1,-1,-1,-1],"split_conditions":[1.06E2,7.2E1,1.66E2,7.25E0,4.3846154E0,1.34E2,1.88E2,-1.5544542E-2,-3.0665144E-3,1E0,1E0,1E0,3.2857144E0,5.05E0,-1.2125303E-2,-1.47867855E-2,1.7491834E-3,8E0,7.5598136E-3,3.7142856E0,1.26E2,-1.3541683E-4,1E0,-2.2306053E-3,1.9784824E-3,8.1E1,4.923077E0,-1.06668435E-2,6.142857E0,1.2187268E-2,4.8E0,4.111111E0,1.6527874E-2,-3.4836002E-4,6.8930993E-3,-1.1544896E-2,-2.0095138E-3,-8.064152E-4,8.050911E-3,6.032034E-3,1.7524033E-3,5.5998554E-3,1.320175E-2],"split_indices":[0,0,0,2,2,0,0,0,0,4,4,3,2,2,0,0,0,1,0,2,0,0,3,0,0,0,2,0,2,0,2,2,0,0,0,0,0,0,0,0,0,0,0],"split_type":[0,0,0,0,0,0,0,0,0,0,0,0,0,0,0,0,0,0,0,0,0,0,0,0,0,0,0,0,0,0,0,0,0,0,0,0,0,0,0,0,0,0,0],"sum_hessian":[1.5766754E2,7.027643E1,8.739111E1,5.1229374E1,1.9047056E1,8.291046E1,4.480653E0,4.9739212E1,1.4901617E0,9.367599E0,9.679458E0,1.9411411E1,6.349905E1,2.4991674E0,1.9814855E0,8.12144E0,1.2461586E0,7.1955733E0,2.483884E0,1.2977948E1,6.4334626E0,1.499809E0,6.199924E1,1.2498856E0,1.2492818E0,4.223221E0,2.9723525E0,1.2473416E0,1.1730606E1,3.9400442E0,2.4934187E0,3.7897736E1,2.4101505E1,2.2322268E0,1.9909942E0,1.7282197E0,1.2441328E0,9.99313E0,1.7374765E0,1.245722E0,1.2476965E0,5.726628E0,3.217111E1],"tree_param":{"num_deleted":"0","num_feature":"5","num_nodes":"43","size_leaf_vector":"1"}},{"base_weights":[1.81154E-3,-1.2768409E0,1.0328029E0,-1.5126274E0,-5.9934783E-1,1.1315514E0,-6.6584784E-1,-1.5421369E-2,-3.048611E-3,-1.2535183E0,9.113217E-2,2.7769706E-1,1.3553551E0,-9.9516094E-1,2.521079E-3,-1.467948E-2,1.7395521E-3,-2.0040597E-1,7.5089643E-3,-2.069394E-1,1.0383059E0,-1.3460412E-4,1.3873332E0,-1.8043115E-3,-1.2740467E-2,3.7067807E-1,-9.012574E-1,-3.9707327E-1,6.969738E-3,1.2104886E-2,4.978174E-1,1.1965138E0,1.6412543E-2,-3.4596067E-4,6.8467883E-3,-1.1480421E-2,-1.9984173E-3,-7.045546E-3,1.8633942E-3,1.7333403E-3,6.0089817E-3,9.476795E-3,1.5211929E-2],"categories":[],"categories_nodes":[],"categories_segments":[],"categories_sizes":[],"default_left":[0,0,0,0,0,0,0,0,0,0,0,0,0,0,0,0,0,0,0,0,0,0,0,0,0,0,0,0,0,0,0,0,0,0,0,0,0,0,0,0,0,0,0],"id":18,"left_children":[1,3,5,7,9,11,13,-1,-1,15,17,19,21,23,-1,-1,-1,25,-1,27,29,-1,31,-1,-1,33,35,37,-1,-1,39,41,-1,-1,-1,-1,-1,-1,-1,-1,-1,-1,-1],"loss_changes":[2.1015573E2,1.0461082E1,1.5557159E1,1.3879242E0,9.16095E0,1.5632912E1,1.9069242E0,0E0,0E0,3.4241676E0,2.2039888E0,7.091817E0,2.9128647E0,7.3214436E-1,0E0,0E0,0E0,3.6135225E0,0E0,2.378497E0,8.856583E-2,0E0,1.1672821E0,0E0,0E0,6.883906E-1,4.578185E-1,2.0580745E0,0E0,0E0,1.2673676E-2,1.8372993E0,0E0,0E0,0E0,0E0,0E0,0E0,0E0,0E0,0E0,0E0,0E0],"parents":[2147483647,0,0,1,1,2,2,3,3,4,4,5,5,6,6,9,9,10,10,11,11,12,12,13,13,17,17,19,19,20,20,22,22,25,25,26,26,27,27,30,30,31,31],"right_children":[2,4,6,8,10,12,14,-1,-1,16,18,20,22,24,-1,-1,-1,26,-1,28,30,-1,32,-1,-1,34,36,38,-1,-1,40,42,-1,-1,-1,-1,-1,-1,-1,-1,-1,-1,-1],"split_conditions":[1.06E2,7.2E1,1.66E2,7.25E0,4.3846154E0,1.32E2,5.263158E0,-1.5421369E-2,-3.048611E-3,1E0,1E0,1E0,3.2857144E0,4.1764708E0,2.521079E-3,-1.467948E-2,1.7395521E-3,8E0,7.5089643E-3,6.142857E0,1.26E2,-1.3460412E-4,1E0,-1.8043115E-3,-1.2740467E-2,8.1E1,4.923077E0,1E0,6.969738E-3,1.2104886E-2,1.2E1,5.263158E0,1.6412543E-2,-3.4596067E-4,6.8467883E-3,-1.1480421E-2,-1.9984173E-3,-7.045546E-3,1.8633942E-3,1.7333403E-3,6.0089817E-3,9.476795E-3,1.5211929E-2],"split_indices":[0,0,0,2,2,0,2,0,0,4,4,3,2,2,0,0,0,1,0,2,0,0,3,0,0,0,2,4,0,0,1,2,0,0,0,0,0,0,0,0,0,0,0],"split_type":[0,0,0,0,0,0,0,0,0,0,0,0,0,0,0,0,0,0,0,0,0,0,0,0,0,0,0,0,0,0,0,0,0,0,0,0,0,0,0,0,0,0,0],"sum_hessian":[1.574163E2,7.01619E1,8.725441E1,5.113338E1,1.9028519E1,8.277619E1,4.4782157E0,4.9643585E1,1.4897984E0,9.3524475E0,9.676071E0,1.7655996E1,6.512019E1,3.233945E0,1.2442706E0,8.106383E0,1.2460645E0,7.1935954E0,2.4824762E0,1.1229094E1,6.4269023E0,1.4998113E0,6.3620384E1,1.2446952E0,1.9892498E0,4.223339E0,2.970256E0,9.740867E0,1.4882277E0,3.9340258E0,2.4928768E0,3.958487E1,2.4035515E1,2.2321599E0,1.9911793E0,1.726173E0,1.244083E0,6.2429457E0,3.4979205E0,1.2474914E0,1.2453854E0,2.4628443E1,1.4956428E1],"tree_param":{"num_deleted":"0","num_feature":"5","num_nodes":"43","size_leaf_vector":"1"}},{"base_weights":[1.921297E-3,-1.2666608E0,1.0246683E0,-1.3997557E0,-1.513571E-1,1.1228353E0,-6.615417E-1,-1.4609995E0,3.1999492E-3,-8.657018E-1,6.314585E-1,3.2318875E-1,1.3591872E0,-1.2668075E-2,-1.2018514E-2,-1.5952148E-2,-1.057121E0,-1.0071367E-2,-3.213483E-3,9.462973E-3,-2.7862468E-4,-7.609543E-2,1.0315465E0,-1.337957E-4,1.392209E0,-2.1839526E-3,1.9873935E-3,-1.2649441E0,7.61083E-3,-1.0583153E-2,1.0325055E-1,1.2023683E-2,4.9513543E-1,1.2032236E0,1.6299792E-2,-6.538319E-3,-1.36120245E-2,-7.8398426E-4,7.95543E-3,1.7237938E-3,5.9768897E-3,8.949749E-3,1.4651999E-2],"categories":[],"categories_nodes":[],"categories_segments":[],"categories_sizes":[],"default_left":[0,0,0,0,0,0,0,0,0,0,0,0,0,0,0,0,0,0,0,0,0,0,0,0,0,0,0,0,0,0,0,0,0,0,0,0,0,0,0,0,0,0,0],"id":19,"left_children":[1,3,5,7,9,11,13,15,-1,17,19,21,23,25,-1,-1,27,-1,-1,-1,-1,29,31,-1,33,-1,-1,35,-1,-1,37,-1,39,41,-1,-1,-1,-1,-1,-1,-1,-1,-1],"loss_changes":[2.0649734E2,1.0333641E1,1.5328621E1,7.139412E0,5.4089904E0,1.5368294E1,1.9049442E0,1.6391296E0,0E0,5.8861494E-2,1.0075911E0,5.846446E0,2.930542E0,1.9558802E-1,0E0,0E0,7.8649464E0,0E0,0E0,0E0,0E0,2.570747E0,8.457327E-2,0E0,8.5824585E-1,0E0,0E0,9.639549E-2,0E0,0E0,1.6628214E0,0E0,1.2565672E-2,1.8202171E0,0E0,0E0,0E0,0E0,0E0,0E0,0E0,0E0,0E0],"parents":[2147483647,0,0,1,1,2,2,3,3,4,4,5,5,6,6,7,7,9,9,10,10,11,11,12,12,13,13,16,16,21,21,22,22,24,24,27,27,30,30,32,32,33,33],"right_children":[2,4,6,8,10,12,14,16,-1,18,20,22,24,26,-1,-1,28,-1,-1,-1,-1,30,32,-1,34,-1,-1,36,-1,-1,38,-1,40,42,-1,-1,-1,-1,-1,-1,-1,-1,-1],"split_conditions":[1.06E2,1E0,1.66E2,1E0,7.2E1,1.34E2,1.88E2,4.923077E0,3.1999492E-3,6.3E1,9.6E1,1E0,3.2857144E0,5.05E0,-1.2018514E-2,-1.5952148E-2,8.4E1,-1.0071367E-2,-3.213483E-3,9.462973E-3,-2.7862468E-4,3.7142856E0,1.26E2,-1.337957E-4,1E0,-2.1839526E-3,1.9873935E-3,5.05E0,7.61083E-3,-1.0583153E-2,6.142857E0,1.2023683E-2,1.2E1,1E0,1.6299792E-2,-6.538319E-3,-1.36120245E-2,-7.8398426E-4,7.95543E-3,1.7237938E-3,5.9768897E-3,8.949749E-3,1.4651999E-2],"split_indices":[0,4,0,3,0,0,0,2,0,0,0,3,2,2,0,0,0,0,0,0,0,2,0,0,3,0,0,2,0,0,2,0,1,4,0,0,0,0,0,0,0,0,0],"split_type":[0,0,0,0,0,0,0,0,0,0,0,0,0,0,0,0,0,0,0,0,0,0,0,0,0,0,0,0,0,0,0,0,0,0,0,0,0,0,0,0,0,0,0],"sum_hessian":[1.5715735E2,7.004158E1,8.7115776E1,6.2346416E1,7.6951613E0,8.2638855E1,4.4769235E0,6.0347767E1,1.9986501E0,3.9681833E0,3.7269783E0,1.9393265E1,6.3245586E1,2.4991126E0,1.9778109E0,4.3081387E1,1.726638E1,2.474978E0,1.4932053E0,2.2278674E0,1.4991109E0,1.2973174E1,6.420091E0,1.4998136E0,6.1745773E1,1.2498199E0,1.2492929E0,1.5768329E1,1.4980507E0,1.2463498E0,1.1726825E1,3.9277732E0,2.492318E0,3.777876E1,2.3967016E1,3.206132E0,1.2562197E1,9.991843E0,1.7349808E0,1.2473949E0,1.2449231E0,1.9385492E1,1.8393265E1],"tree_param":{"num_deleted":"0","num_feature":"5","num_nodes":"43","size_leaf_vector":"1"}},{"base_weights":[1.9972422E-3,-1.2567282E0,1.0165863E0,-1.4900601E0,-5.874009E-1,1.114166E0,-6.574758E-1,-1.5194026E-2,-2.9617643E-3,-1.234782E0,9.414538E-2,2.737365E-1,1.3350809E0,-1.25978375E-2,-1.1949059E-2,-1.4466346E-2,1.7103287E-3,-1.9262387E-1,7.415777E-3,-2.0414205E-1,1.0248697E0,-1.32993E-4,1.3667094E0,-2.1737553E-3,1.9783056E-3,3.7473094E-1,-8.9107376E-1,-3.918242E-1,6.8862E-3,1.1434222E0,4.00975E-3,1.1777377E0,1.618954E-2,-2.5711957E-4,6.819375E-3,-1.1346655E-2,-1.9835872E-3,-6.9667716E-3,1.8604903E-3,4.547943E-3,1.3311008E-2,9.304964E-3,1.5012824E-2],"categories":[],"categories_nodes":[],"categories_segments":[],"categories_sizes":[],"default_left":[0,0,0,0,0,0,0,0,0,0,0,0,0,0,0,0,0,0,0,0,0,0,0,0,0,0,0,0,0,0,0,0,0,0,0,0,0,0,0,0,0,0,0],"id":20,"left_children":[1,3,5,7,9,11,13,-1,-1,15,17,19,21,23,-1,-1,-1,25,-1,27,29,-1,31,-1,-1,33,35,37,-1,39,-1,41,-1,-1,-1,-1,-1,-1,-1,-1,-1,-1,-1],"loss_changes":[2.0290878E2,1.019931E1,1.5103203E1,1.3691864E0,8.932205E0,1.5137054E1,1.8822081E0,0E0,0E0,3.3204203E0,2.1225293E0,6.899233E0,2.8269348E0,1.9378115E-1,0E0,0E0,0E0,3.5767553E0,0E0,2.3181295E0,8.981609E-2,0E0,1.1611633E0,0E0,0E0,6.596228E-1,4.438126E-1,2.0213783E0,0E0,1.2990713E-1,0E0,1.8399582E0,0E0,0E0,0E0,0E0,0E0,0E0,0E0,0E0,0E0,0E0,0E0],"parents":[2147483647,0,0,1,1,2,2,3,3,4,4,5,5,6,6,9,9,10,10,11,11,12,12,13,13,17,17,19,19,20,20,22,22,25,25,26,26,27,27,29,29,31,31],"right_children":[2,4,6,8,10,12,14,-1,-1,16,18,20,22,24,-1,-1,-1,26,-1,28,30,-1,32,-1,-1,34,36,38,-1,40,-1,42,-1,-1,-1,-1,-1,-1,-1,-1,-1,-1,-1],"split_conditions":[1.06E2,7.2E1,1.66E2,7.25E0,4.3846154E0,1.32E2,1.88E2,-1.5194026E-2,-2.9617643E-3,1E0,1E0,1E0,3.2857144E0,1.74E2,-1.1949059E-2,-1.4466346E-2,1.7103287E-3,8E0,7.415777E-3,6.142857E0,5.0666666E0,-1.32993E-4,1E0,-2.1737553E-3,1.9783056E-3,8.1E1,4.923077E0,1E0,6.8862E-3,1.2E1,4.00975E-3,5.263158E0,1.618954E-2,-2.5711957E-4,6.819375E-3,-1.1346655E-2,-1.9835872E-3,-6.9667716E-3,1.8604903E-3,4.547943E-3,1.3311008E-2,9.304964E-3,1.5012824E-2],"split_indices":[0,0,0,2,2,0,0,0,0,4,4,3,2,0,0,0,0,1,0,2,2,0,3,0,0,0,2,4,0,1,0,2,0,0,0,0,0,0,0,0,0,0,0],"split_type":[0,0,0,0,0,0,0,0,0,0,0,0,0,0,0,0,0,0,0,0,0,0,0,0,0,0,0,0,0,0,0,0,0,0,0,0,0,0,0,0,0,0,0],"sum_hessian":[1.5688344E2,6.991117E1,8.697227E1,5.0930317E1,1.8980854E1,8.249798E1,4.474287E0,4.9442497E1,1.4878194E0,9.318112E0,9.662742E0,1.7637709E1,6.486027E1,2.4990478E0,1.9752394E0,8.072562E0,1.24555E0,7.183439E0,2.4793026E0,1.1224677E1,6.4130316E0,1.4998158E0,6.3360455E1,1.2497975E0,1.2492503E0,4.219443E0,2.9639955E0,9.738498E0,1.4861791E0,4.6892605E0,1.723771E0,3.946436E1,2.3896097E1,2.2295434E0,1.9898996E0,1.7208611E0,1.2431345E0,6.2406816E0,3.4978158E0,1.7374588E0,2.9518018E0,2.4567049E1,1.4897309E1],"tree_param":{"num_deleted":"0","num_feature":"5","num_nodes":"43","size_leaf_vector":"1"}},{"base_weights":[2.1182322E-3,-1.2469037E0,1.0087271E0,-1.3785969E0,-1.4630711E-1,1.1057365E0,-6.534521E-1,-1.4395833E0,3.239887E-3,-8.496611E-1,6.232509E-1,2.7240378E-1,1.3251109E0,-9.809501E-1,2.552694E-3,-1.5727332E-2,-1.039805E0,-9.910587E-3,-3.1178053E-3,9.3658045E-3,-3.0433966E-4,-2.0200166E-1,1.0184487E0,-1.3219604E-4,1.3565708E0,-1.7373175E-3,-1.2589516E-2,-1.2457579E0,7.552364E-3,-3.8844758E-1,6.847803E-3,1.1882118E-2,4.8759025E-1,1.1684066E0,1.6081702E-2,-6.4022522E-3,-1.34165E-2,-6.9083157E-3,1.8460858E-3,5.902137E-3,1.6811128E-3,9.226005E-3,1.4904887E-2],"categories":[],"categories_nodes":[],"categories_segments":[],"categories_sizes":[],"default_left":[0,0,0,0,0,0,0,0,0,0,0,0,0,0,0,0,0,0,0,0,0,0,0,0,0,0,0,0,0,0,0,0,0,0,0,0,0,0,0,0,0,0,0],"id":21,"left_children":[1,3,5,7,9,11,13,15,-1,17,19,21,23,25,-1,-1,27,-1,-1,-1,-1,29,31,-1,33,-1,-1,35,-1,37,-1,-1,39,41,-1,-1,-1,-1,-1,-1,-1,-1,-1],"loss_changes":[1.9940927E2,1.0057266E1,1.4883835E1,7.0180893E0,5.229371E0,1.4876762E1,1.878757E0,1.6169891E0,0E0,6.822014E-2,9.958998E-1,6.7988863E0,2.7851334E0,7.3019075E-1,0E0,0E0,7.675354E0,0E0,0E0,0E0,0E0,2.2867255E0,8.813095E-2,0E0,1.1614914E0,0E0,0E0,1.11839294E-1,0E0,1.9880186E0,0E0,0E0,1.5221536E-2,1.8233948E0,0E0,0E0,0E0,0E0,0E0,0E0,0E0,0E0,0E0],"parents":[2147483647,0,0,1,1,2,2,3,3,4,4,5,5,6,6,7,7,9,9,10,10,11,11,12,12,13,13,16,16,21,21,22,22,24,24,27,27,29,29,32,32,33,33],"right_children":[2,4,6,8,10,12,14,16,-1,18,20,22,24,26,-1,-1,28,-1,-1,-1,-1,30,32,-1,34,-1,-1,36,-1,38,-1,-1,40,42,-1,-1,-1,-1,-1,-1,-1,-1,-1],"split_conditions":[1.06E2,1E0,1.66E2,1E0,7.2E1,1.32E2,5.263158E0,4.923077E0,3.239887E-3,6.3E1,9.6E1,1E0,3.2857144E0,4.1764708E0,2.552694E-3,-1.5727332E-2,8.4E1,-9.910587E-3,-3.1178053E-3,9.3658045E-3,-3.0433966E-4,6.142857E0,1.26E2,-1.3219604E-4,1E0,-1.7373175E-3,-1.2589516E-2,5.05E0,7.552364E-3,1E0,6.847803E-3,1.1882118E-2,4.8E0,5.263158E0,1.6081702E-2,-6.4022522E-3,-1.34165E-2,-6.9083157E-3,1.8460858E-3,5.902137E-3,1.6811128E-3,9.226005E-3,1.4904887E-2],"split_indices":[0,4,0,3,0,0,2,2,0,0,0,3,2,2,0,0,0,0,0,0,0,2,0,0,3,0,0,2,0,4,0,0,2,2,0,0,0,0,0,0,0,0,0],"split_type":[0,0,0,0,0,0,0,0,0,0,0,0,0,0,0,0,0,0,0,0,0,0,0,0,0,0,0,0,0,0,0,0,0,0,0,0,0,0,0,0,0,0,0],"sum_hessian":[1.5660373E2,6.978022E1,8.682352E1,6.20973E1,7.68292E0,8.235199E1,4.4715257E0,6.0099037E1,1.9982656E0,3.9597406E0,3.7231796E0,1.7628542E1,6.472345E1,3.2285066E0,1.2430191E0,4.2882584E1,1.7216452E1,2.4683402E0,1.4914005E0,2.224259E0,1.4989206E0,1.1221864E1,6.406678E0,1.499818E0,6.322363E1,1.2433084E0,1.985198E0,1.5718948E1,1.4975032E0,9.736684E0,1.4851797E0,3.916074E0,2.4906044E0,3.9400787E1,2.3822842E1,3.198403E0,1.2520546E1,6.2390223E0,3.4976614E0,1.2436817E0,1.2469227E0,2.4538233E1,1.48625555E1],"tree_param":{"num_deleted":"0","num_feature":"5","num_nodes":"43","size_leaf_vector":"1"}},{"base_weights":[2.2335395E-3,-1.2373152E0,1.0009618E0,-1.4683431E0,-5.7578635E-1,1.0974234E0,-6.492592E-1,-1.49754165E-2,-2.8766554E-3,-1.2166978E0,9.707398E-2,3.167119E-1,1.3292736E0,-9.10565E-3,-1.1846115E-2,-1.4261216E-2,1.6815983E-3,-1.8502879E-1,7.32424E-3,-7.4334785E-2,1.0119225E0,-1.3140193E-4,1.3617826E0,-2.13537E-3,1.9941272E-3,3.7866542E-1,-8.8117427E-1,-1.0474692E-2,1.0324564E-1,1.1301675E0,3.932213E-3,1.1752524E0,1.597621E-2,-1.7017542E-4,6.791912E-3,-1.12168845E-2,-1.9691659E-3,-1.1837665E-3,6.654963E-3,4.485207E-3,1.316514E-2,8.689056E-3,1.4366895E-2],"categories":[],"categories_nodes":[],"categories_segments":[],"categories_sizes":[],"default_left":[0,0,0,0,0,0,0,0,0,0,0,0,0,0,0,0,0,0,0,0,0,0,0,0,0,0,0,0,0,0,0,0,0,0,0,0,0,0,0,0,0,0,0],"id":22,"left_children":[1,3,5,7,9,11,13,-1,-1,15,17,19,21,23,-1,-1,-1,25,-1,27,29,-1,31,-1,-1,33,35,-1,37,39,-1,41,-1,-1,-1,-1,-1,-1,-1,-1,-1,-1,-1],"loss_changes":[1.9598372E2,9.9505005E0,1.4668152E1,1.3518524E0,8.7125025E0,1.4638939E1,1.8638048E0,0E0,0E0,3.2214966E0,2.0440822E0,5.6112375E0,2.8037872E0,1.9173133E-1,0E0,0E0,0E0,3.5406783E0,0E0,2.5213156E0,9.690523E-2,0E0,8.646622E-1,0E0,0E0,6.317251E-1,4.30377E-1,0E0,1.6637332E0,1.3079786E-1,0E0,1.8423195E0,0E0,0E0,0E0,0E0,0E0,0E0,0E0,0E0,0E0,0E0,0E0],"parents":[2147483647,0,0,1,1,2,2,3,3,4,4,5,5,6,6,9,9,10,10,11,11,12,12,13,13,17,17,19,19,20,20,22,22,25,25,26,26,28,28,29,29,31,31],"right_children":[2,4,6,8,10,12,14,-1,-1,16,18,20,22,24,-1,-1,-1,26,-1,28,30,-1,32,-1,-1,34,36,-1,38,40,-1,42,-1,-1,-1,-1,-1,-1,-1,-1,-1,-1,-1],"split_conditions":[1.06E2,7.2E1,1.66E2,7.25E0,4.3846154E0,1.34E2,1.88E2,-1.49754165E-2,-2.8766554E-3,1E0,1E0,1E0,3.2857144E0,5.05E0,-1.1846115E-2,-1.4261216E-2,1.6815983E-3,8E0,7.32424E-3,3.7142856E0,5.0666666E0,-1.3140193E-4,1E0,-2.13537E-3,1.9941272E-3,8.1E1,4.923077E0,-1.0474692E-2,1.4E1,1.2E1,3.932213E-3,1E0,1.597621E-2,-1.7017542E-4,6.791912E-3,-1.12168845E-2,-1.9691659E-3,-1.1837665E-3,6.654963E-3,4.485207E-3,1.316514E-2,8.689056E-3,1.4366895E-2],"split_indices":[0,0,0,2,2,0,0,0,0,4,4,3,2,2,0,0,0,1,0,2,2,0,3,0,0,0,2,0,1,1,0,4,0,0,0,0,0,0,0,0,0,0,0],"split_type":[0,0,0,0,0,0,0,0,0,0,0,0,0,0,0,0,0,0,0,0,0,0,0,0,0,0,0,0,0,0,0,0,0,0,0,0,0,0,0,0,0,0,0],"sum_hessian":[1.5630983E2,6.963948E1,8.667035E1,5.0710175E1,1.8929306E1,8.22004E1,4.469942E0,4.922447E1,1.4857075E0,9.280868E0,9.648439E0,1.9363499E1,6.2836906E1,2.4988832E0,1.9710587E0,8.035856E0,1.2450112E0,7.1725297E0,2.4759097E0,1.2964317E1,6.39918E0,1.4998202E0,6.1337086E1,1.2496544E0,1.249229E0,4.2153015E0,2.9572282E0,1.2447219E0,1.1719596E1,4.6783795E0,1.7208006E0,3.7589756E1,2.374733E1,2.2267964E0,1.988505E0,1.7150989E0,1.2421293E0,8.972404E0,2.7471921E0,1.735805E0,2.9425745E0,1.9299063E1,1.8290693E1],"tree_param":{"num_deleted":"0","num_feature":"5","num_nodes":"43","size_leaf_vector":"1"}},{"base_weights":[2.303533E-3,-1.2278252E0,9.9321294E-1,-1.3581995E0,-1.4137565E-1,1.0891155E0,-6.453087E-1,-1.4189619E0,3.2787337E-3,-8.340223E-1,6.151836E-1,2.686116E-1,1.3058224E0,-9.70897E-1,2.558656E-3,-1.5511548E-2,-1.0230031E0,-9.754206E-3,-3.0240847E-3,9.27045E-3,-3.2954043E-4,-1.9930574E-1,1.0056475E0,-1.3061355E-4,1.3369642E0,-1.6951138E-3,-1.2479616E-2,-1.2271701E0,7.4945437E-3,-3.8462967E-1,6.8162885E-3,1.1231575E0,3.908549E-3,1.1504018E0,1.587298E-2,-6.2693376E-3,-1.3227464E-2,-6.8390253E-3,1.8244796E-3,4.457753E-3,1.3084685E-2,9.059215E-3,1.4717797E-2],"categories":[],"categories_nodes":[],"categories_segments":[],"categories_sizes":[],"default_left":[0,0,0,0,0,0,0,0,0,0,0,0,0,0,0,0,0,0,0,0,0,0,0,0,0,0,0,0,0,0,0,0,0,0,0,0,0,0,0,0,0,0,0],"id":23,"left_children":[1,3,5,7,9,11,13,15,-1,17,19,21,23,25,-1,-1,27,-1,-1,-1,-1,29,31,-1,33,-1,-1,35,-1,37,-1,39,-1,41,-1,-1,-1,-1,-1,-1,-1,-1,-1],"loss_changes":[1.9261134E2,9.793755E0,1.4454903E1,6.902069E0,5.0562053E0,1.4416008E1,1.8525009E0,1.5972443E0,0E0,7.7148914E-2,9.844259E-1,6.6186767E0,2.7051697E0,7.2646785E-1,0E0,0E0,7.492344E0,0E0,0E0,0E0,0E0,2.256884E0,9.506607E-2,0E0,1.1600723E0,0E0,0E0,1.2681198E-1,0E0,1.9464188E0,0E0,1.2875652E-1,0E0,1.8306122E0,0E0,0E0,0E0,0E0,0E0,0E0,0E0,0E0,0E0],"parents":[2147483647,0,0,1,1,2,2,3,3,4,4,5,5,6,6,7,7,9,9,10,10,11,11,12,12,13,13,16,16,21,21,22,22,24,24,27,27,29,29,31,31,33,33],"right_children":[2,4,6,8,10,12,14,16,-1,18,20,22,24,26,-1,-1,28,-1,-1,-1,-1,30,32,-1,34,-1,-1,36,-1,38,-1,40,-1,42,-1,-1,-1,-1,-1,-1,-1,-1,-1],"split_conditions":[1.06E2,1E0,1.66E2,1E0,7.2E1,1.32E2,5.263158E0,4.923077E0,3.2787337E-3,6.3E1,9.6E1,1E0,3.2857144E0,4.1764708E0,2.558656E-3,-1.5511548E-2,8.4E1,-9.754206E-3,-3.0240847E-3,9.27045E-3,-3.2954043E-4,6.142857E0,5.0666666E0,-1.3061355E-4,1E0,-1.6951138E-3,-1.2479616E-2,5.05E0,7.4945437E-3,1E0,6.8162885E-3,1.2E1,3.908549E-3,5.263158E0,1.587298E-2,-6.2693376E-3,-1.3227464E-2,-6.8390253E-3,1.8244796E-3,4.457753E-3,1.3084685E-2,9.059215E-3,1.4717797E-2],"split_indices":[0,4,0,3,0,0,2,2,0,0,0,3,2,2,0,0,0,0,0,0,0,2,2,0,3,0,0,2,0,4,0,1,0,2,0,0,0,0,0,0,0,0,0],"split_type":[0,0,0,0,0,0,0,0,0,0,0,0,0,0,0,0,0,0,0,0,0,0,0,0,0,0,0,0,0,0,0,0,0,0,0,0,0,0,0,0,0,0,0],"sum_hessian":[1.5601422E2,6.94986E1,8.651562E1,6.1828976E1,7.6696253E0,8.2048615E1,4.466997E0,5.9831207E1,1.9977658E0,3.9504828E0,3.7191424E0,1.7610518E1,6.44381E1,3.2246008E0,1.242396E0,4.2668594E1,1.7162615E1,2.4610612E0,1.4894216E0,2.220428E0,1.4987144E0,1.1218123E1,6.3923936E0,1.4998224E0,6.293828E1,1.2425225E0,1.9820784E0,1.5665744E1,1.4968706E0,9.733791E0,1.484332E0,4.6724286E0,1.719965E0,3.9268635E1,2.3669643E1,3.1902046E0,1.247554E1,6.2364945E0,3.497297E0,1.7351924E0,2.9372363E0,2.4471447E1,1.4797188E1],"tree_param":{"num_deleted":"0","num_feature":"5","num_nodes":"43","size_leaf_vector":"1"}},{"base_weights":[2.432379E-3,-1.2185601E0,9.8569155E-1,-1.447424E0,-5.644871E-1,1.0810664E0,-6.411928E-1,-1.4764999E-2,-2.7932262E-3,-1.1992276E0,9.992149E-2,3.124863E-1,1.310132E0,-5.6748753E-3,-1.17455125E-2,-1.4063608E-2,1.6533514E-3,-1.7761333E-1,7.2343056E-3,-7.333348E-2,9.9944603E-1,-1.2982947E-4,1.3423254E0,-2.0903186E-3,2.0023226E-3,3.8248575E-1,-8.715462E-1,-1.0394607E-2,1.0287422E-1,1.1685131E-2,4.7541192E-1,1.1572307E0,1.577195E-2,-8.506539E-5,6.7644166E-3,-1.10909175E-2,-1.9551367E-3,-1.1708555E-3,6.6070426E-3,1.6215451E-3,5.772476E-3,8.526958E-3,1.41780265E-2],"categories":[],"categories_nodes":[],"categories_segments":[],"categories_sizes":[],"default_left":[0,0,0,0,0,0,0,0,0,0,0,0,0,0,0,0,0,0,0,0,0,0,0,0,0,0,0,0,0,0,0,0,0,0,0,0,0,0,0,0,0,0,0],"id":24,"left_children":[1,3,5,7,9,11,13,-1,-1,15,17,19,21,23,-1,-1,-1,25,-1,27,29,-1,31,-1,-1,33,35,-1,37,-1,39,41,-1,-1,-1,-1,-1,-1,-1,-1,-1,-1,-1],"loss_changes":[1.8933095E2,9.713623E0,1.4247452E1,1.335823E0,8.501282E0,1.4183716E1,1.8458135E0,0E0,0E0,3.1270742E0,1.9685212E0,5.465621E0,2.7241287E0,1.8835177E-1,0E0,0E0,0E0,3.5052648E0,0E0,2.483428E0,9.87978E-2,0E0,8.7207794E-1,0E0,0E0,6.046695E-1,4.174788E-1,0E0,1.6376598E0,0E0,1.764834E-2,1.8425407E0,0E0,0E0,0E0,0E0,0E0,0E0,0E0,0E0,0E0,0E0,0E0],"parents":[2147483647,0,0,1,1,2,2,3,3,4,4,5,5,6,6,9,9,10,10,11,11,12,12,13,13,17,17,19,19,20,20,22,22,25,25,26,26,28,28,30,30,31,31],"right_children":[2,4,6,8,10,12,14,-1,-1,16,18,20,22,24,-1,-1,-1,26,-1,28,30,-1,32,-1,-1,34,36,-1,38,-1,40,42,-1,-1,-1,-1,-1,-1,-1,-1,-1,-1,-1],"split_conditions":[1.06E2,7.2E1,1.66E2,7.25E0,4.3846154E0,1.34E2,1.88E2,-1.4764999E-2,-2.7932262E-3,1E0,1E0,1E0,3.2857144E0,5.05E0,-1.17455125E-2,-1.4063608E-2,1.6533514E-3,8E0,7.2343056E-3,3.7142856E0,1.26E2,-1.2982947E-4,1E0,-2.0903186E-3,2.0023226E-3,8.1E1,4.923077E0,-1.0394607E-2,1.4E1,1.1685131E-2,1.2E1,1E0,1.577195E-2,-8.506539E-5,6.7644166E-3,-1.10909175E-2,-1.9551367E-3,-1.1708555E-3,6.6070426E-3,1.6215451E-3,5.772476E-3,8.526958E-3,1.41780265E-2],"split_indices":[0,0,0,2,2,0,0,0,0,4,4,3,2,2,0,0,0,1,0,2,0,0,3,0,0,0,2,0,1,0,1,4,0,0,0,0,0,0,0,0,0,0,0],"split_type":[0,0,0,0,0,0,0,0,0,0,0,0,0,0,0,0,0,0,0,0,0,0,0,0,0,0,0,0,0,0,0,0,0,0,0,0,0,0,0,0,0,0,0],"sum_hessian":[1.5570276E2,6.934819E1,8.635457E1,5.0474075E1,1.8874119E1,8.188936E1,4.465203E0,4.8990604E1,1.4834708E0,9.2409E0,9.633219E0,1.9345133E1,6.2544228E1,2.498628E0,1.9665749E0,7.996451E0,1.2444491E0,7.1609106E0,2.472308E0,1.295975E1,6.385383E0,1.4998244E0,6.1044403E1,1.2494636E0,1.2491643E0,4.210928E0,2.9499824E0,1.2433786E0,1.1716372E1,3.897958E0,2.4874253E0,3.7454548E1,2.3589857E1,2.22393E0,1.9869983E0,1.7089124E0,1.2410702E0,8.969632E0,2.7467391E0,1.2462237E0,1.2412016E0,1.924038E1,1.8214169E1],"tree_param":{"num_deleted":"0","num_feature":"5","num_nodes":"43","size_leaf_vector":"1"}},{"base_weights":[2.4867305E-3,-1.2093848E0,9.7814894E-1,-1.4368199E0,-5.6011754E-1,1.0729849E0,-6.3731366E-1,-1.4657242E-2,-2.7770193E-3,-1.1907688E0,9.904523E-2,2.6489368E-1,1.2871563E0,-9.610439E-1,2.5643462E-3,-1.3969417E-2,1.6442623E-3,-1.7667891E-1,7.186483E-3,-1.9664846E-1,9.9313045E-1,-1.290511E-4,1.3179995E0,-1.6535646E-3,-1.2372265E-2,3.7994102E-1,-8.667475E-1,-3.8086346E-1,6.784938E-3,1.1107293E0,3.8254117E-3,1.1328981E0,1.5673045E-2,-8.447891E-5,6.719323E-3,-1.1032085E-2,-1.9443622E-3,-6.770691E-3,1.803096E-3,4.4038594E-3,1.2945092E-2,8.896496E-3,1.4537212E-2],"categories":[],"categories_nodes":[],"categories_segments":[],"categories_sizes":[],"default_left":[0,0,0,0,0,0,0,0,0,0,0,0,0,0,0,0,0,0,0,0,0,0,0,0,0,0,0,0,0,0,0,0,0,0,0,0,0,0,0,0,0,0,0],"id":25,"left_children":[1,3,5,7,9,11,13,-1,-1,15,17,19,21,23,-1,-1,-1,25,-1,27,29,-1,31,-1,-1,33,35,37,-1,39,-1,41,-1,-1,-1,-1,-1,-1,-1,-1,-1,-1,-1],"loss_changes":[1.8609325E2,9.561081E0,1.4041763E1,1.3133163E0,8.369511E0,1.397686E1,1.8268061E0,0E0,0E0,3.0855017E0,1.9427701E0,6.444068E0,2.6288757E0,7.2285414E-1,0E0,0E0,0E0,3.4629076E0,0E0,2.2274942E0,1.0482311E-1,0E0,1.1610565E0,0E0,0E0,5.966302E-1,4.1300464E-1,1.9057493E0,0E0,1.2727213E-1,0E0,1.8383751E0,0E0,0E0,0E0,0E0,0E0,0E0,0E0,0E0,0E0,0E0,0E0],"parents":[2147483647,0,0,1,1,2,2,3,3,4,4,5,5,6,6,9,9,10,10,11,11,12,12,13,13,17,17,19,19,20,20,22,22,25,25,26,26,27,27,29,29,31,31],"right_children":[2,4,6,8,10,12,14,-1,-1,16,18,20,22,24,-1,-1,-1,26,-1,28,30,-1,32,-1,-1,34,36,38,-1,40,-1,42,-1,-1,-1,-1,-1,-1,-1,-1,-1,-1,-1],"split_conditions":[1.06E2,7.2E1,1.66E2,7.25E0,4.3846154E0,1.32E2,5.263158E0,-1.4657242E-2,-2.7770193E-3,1E0,1E0,1E0,3.2857144E0,4.1764708E0,2.5643462E-3,-1.3969417E-2,1.6442623E-3,8E0,7.186483E-3,6.142857E0,5.0666666E0,-1.290511E-4,1E0,-1.6535646E-3,-1.2372265E-2,8.1E1,4.923077E0,1E0,6.784938E-3,1.2E1,3.8254117E-3,5.263158E0,1.5673045E-2,-8.447891E-5,6.719323E-3,-1.1032085E-2,-1.9443622E-3,-6.770691E-3,1.803096E-3,4.4038594E-3,1.2945092E-2,8.896496E-3,1.4537212E-2],"split_indices":[0,0,0,2,2,0,2,0,0,4,4,3,2,2,0,0,0,1,0,2,2,0,3,0,0,0,2,4,0,1,0,2,0,0,0,0,0,0,0,0,0,0,0],"split_type":[0,0,0,0,0,0,0,0,0,0,0,0,0,0,0,0,0,0,0,0,0,0,0,0,0,0,0,0,0,0,0,0,0,0,0,0,0,0,0,0,0,0,0],"sum_hessian":[1.5538855E2,6.919803E1,8.619053E1,5.034829E1,1.8849737E1,8.1728455E1,4.462078E0,4.8865246E1,1.4830452E0,9.221049E0,9.628688E0,1.7591337E1,6.4137115E1,3.2203271E0,1.241751E0,7.9767065E0,1.2443426E0,7.1581526E0,2.4705353E0,1.1214055E1,6.377281E0,1.4998266E0,6.263729E1,1.2416965E0,1.9786307E0,4.210951E0,2.9472017E0,9.730591E0,1.4834641E0,4.660553E0,1.7167282E0,3.9129242E1,2.3508049E1,2.2239099E0,1.9870409E0,1.7061915E0,1.2410102E0,6.2337093E0,3.496882E0,1.7335695E0,2.9269834E0,2.440123E1,1.472801E1],"tree_param":{"num_deleted":"0","num_feature":"5","num_nodes":"43","size_leaf_vector":"1"}},{"base_weights":[2.6054336E-3,-1.2003648E0,9.70844E-1,-1.3290824E0,-1.3265544E-1,1.0651711E0,-6.332727E-1,-1.3897605E0,3.3759116E-3,-8.0881894E-1,6.0330164E-1,3.082484E-1,1.2916065E0,-2.3041102E-3,-1.1647174E-2,-1.5208939E-2,-9.9852157E-1,-9.511876E-3,-2.858736E-3,9.140638E-3,-3.8074257E-4,-7.234216E-2,9.870662E-1,-1.282756E-4,1.3235042E0,-2.0459518E-3,2.0102519E-3,-1.2003913E0,7.423765E-3,-1.0315905E-2,1.0251027E-1,1.1039696E0,3.8024592E-3,1.1397092E0,1.5576206E-2,-6.0541956E-3,-1.2961826E-2,-1.1580676E-3,6.559757E-3,4.3769777E-3,1.2868005E-2,8.368673E-3,1.3995417E-2],"categories":[],"categories_nodes":[],"categories_segments":[],"categories_sizes":[],"default_left":[0,0,0,0,0,0,0,0,0,0,0,0,0,0,0,0,0,0,0,0,0,0,0,0,0,0,0,0,0,0,0,0,0,0,0,0,0,0,0,0,0,0,0],"id":26,"left_children":[1,3,5,7,9,11,13,15,-1,17,19,21,23,25,-1,-1,27,-1,-1,-1,-1,29,31,-1,33,-1,-1,35,-1,-1,37,39,-1,41,-1,-1,-1,-1,-1,-1,-1,-1,-1],"loss_changes":[1.8294347E2,9.449928E0,1.3841888E1,6.7794037E0,4.790685E0,1.3752373E1,1.8282175E0,1.580162E0,0E0,9.538674E-2,9.741651E-1,5.3223076E0,2.6481476E0,1.8501905E-1,0E0,0E0,7.243004E0,0E0,0E0,0E0,0E0,2.4463365E0,1.0303354E-1,0E0,8.8126373E-1,0E0,0E0,1.6010284E-1,0E0,0E0,1.6120734E0,1.2551403E-1,0E0,1.8435097E0,0E0,0E0,0E0,0E0,0E0,0E0,0E0,0E0,0E0],"parents":[2147483647,0,0,1,1,2,2,3,3,4,4,5,5,6,6,7,7,9,9,10,10,11,11,12,12,13,13,16,16,21,21,22,22,24,24,27,27,30,30,31,31,33,33],"right_children":[2,4,6,8,10,12,14,16,-1,18,20,22,24,26,-1,-1,28,-1,-1,-1,-1,30,32,-1,34,-1,-1,36,-1,-1,38,40,-1,42,-1,-1,-1,-1,-1,-1,-1,-1,-1],"split_conditions":[1.06E2,1E0,1.66E2,1E0,7.2E1,1.34E2,1.88E2,4.923077E0,3.3759116E-3,6.3E1,9.6E1,1E0,3.2857144E0,5.05E0,-1.1647174E-2,-1.5208939E-2,8.4E1,-9.511876E-3,-2.858736E-3,9.140638E-3,-3.8074257E-4,3.7142856E0,5.0666666E0,-1.282756E-4,1E0,-2.0459518E-3,2.0102519E-3,5.05E0,7.423765E-3,-1.0315905E-2,1.4E1,1.2E1,3.8024592E-3,1E0,1.5576206E-2,-6.0541956E-3,-1.2961826E-2,-1.1580676E-3,6.559757E-3,4.3769777E-3,1.2868005E-2,8.368673E-3,1.3995417E-2],"split_indices":[0,4,0,3,0,0,0,2,0,0,0,3,2,2,0,0,0,0,0,0,0,2,2,0,3,0,0,2,0,0,1,1,0,4,0,0,0,0,0,0,0,0,0],"split_type":[0,0,0,0,0,0,0,0,0,0,0,0,0,0,0,0,0,0,0,0,0,0,0,0,0,0,0,0,0,0,0,0,0,0,0,0,0,0,0,0,0,0,0],"sum_hessian":[1.5506454E2,6.904327E1,8.6021286E1,6.139679E1,7.6464763E0,8.15612E1,4.4600806E0,5.9400364E1,1.996425E0,3.9335287E0,3.7129478E0,1.9324629E1,6.2236576E1,2.498281E0,1.9617996E0,4.232628E1,1.7074085E1,2.4481344E0,1.4853941E0,2.2147076E0,1.4982402E0,1.2954757E1,6.369872E0,1.4998286E0,6.0736748E1,1.2492169E0,1.2490642E0,1.557816E1,1.4959247E0,1.2418936E0,1.1712863E1,4.6540117E0,1.7158602E0,3.731245E1,2.3424295E1,3.1754196E0,1.24027405E1,8.966677E0,2.746187E0,1.732919E0,2.9210927E0,1.9179276E1,1.8133175E1],"tree_param":{"num_deleted":"0","num_feature":"5","num_nodes":"43","size_leaf_vector":"1"}},{"base_weights":[2.6825434E-3,-1.191545E0,9.635272E-1,-1.4170153E0,-5.492504E-1,1.0573341E0,-6.294632E-1,-1.4458284E-2,-2.6958042E-3,-1.1741431E0,1.0178627E-1,2.6135486E-1,1.2690773E0,-2.2913914E-3,-1.1582625E-2,-1.3782145E-2,1.6167111E-3,-1.695038E-1,7.098854E-3,-1.9402924E-1,9.8107094E-1,-1.2750726E-4,1.2996398E0,-2.034627E-3,1.9991307E-3,3.8361454E-1,-8.574928E-1,-3.7714818E-1,6.7537515E-3,1.1495516E-2,4.635399E-1,1.1158689E0,1.54813705E-2,-1.7411616E-6,6.6918805E-3,-1.0911347E-2,-1.9309076E-3,-6.7032925E-3,1.7819295E-3,5.6482875E-3,1.5613248E-3,8.737651E-3,1.436278E-2],"categories":[],"categories_nodes":[],"categories_segments":[],"categories_sizes":[],"default_left":[0,0,0,0,0,0,0,0,0,0,0,0,0,0,0,0,0,0,0,0,0,0,0,0,0,0,0,0,0,0,0,0,0,0,0,0,0,0,0,0,0,0,0],"id":27,"left_children":[1,3,5,7,9,11,13,-1,-1,15,17,19,21,23,-1,-1,-1,25,-1,27,29,-1,31,-1,-1,33,35,37,-1,-1,39,41,-1,-1,-1,-1,-1,-1,-1,-1,-1,-1,-1],"loss_changes":[1.7984325E2,9.341576E0,1.3643883E1,1.2993317E0,8.170526E0,1.3555191E1,1.8070774E0,0E0,0E0,2.9971895E0,1.8710591E0,6.2772536E0,2.5560074E0,1.8297328E-1,0E0,0E0,0E0,3.4287055E0,0E0,2.1985497E0,1.09081745E-1,0E0,1.164177E0,0E0,0E0,5.707323E-1,4.008248E-1,1.8659852E0,0E0,0E0,2.0287752E-2,1.8466148E0,0E0,0E0,0E0,0E0,0E0,0E0,0E0,0E0,0E0,0E0,0E0],"parents":[2147483647,0,0,1,1,2,2,3,3,4,4,5,5,6,6,9,9,10,10,11,11,12,12,13,13,17,17,19,19,20,20,22,22,25,25,26,26,27,27,30,30,31,31],"right_children":[2,4,6,8,10,12,14,-1,-1,16,18,20,22,24,-1,-1,-1,26,-1,28,30,-1,32,-1,-1,34,36,38,-1,-1,40,42,-1,-1,-1,-1,-1,-1,-1,-1,-1,-1,-1],"split_conditions":[1.06E2,7.2E1,1.66E2,7.25E0,4.3846154E0,1.32E2,1.88E2,-1.4458284E-2,-2.6958042E-3,1E0,1E0,1E0,3.2857144E0,5.05E0,-1.1582625E-2,-1.3782145E-2,1.6167111E-3,8E0,7.098854E-3,6.142857E0,1.26E2,-1.2750726E-4,1E0,-2.034627E-3,1.9991307E-3,8.1E1,4.923077E0,1E0,6.7537515E-3,1.1495516E-2,4.8E0,5.263158E0,1.54813705E-2,-1.7411616E-6,6.6918805E-3,-1.0911347E-2,-1.9309076E-3,-6.7032925E-3,1.7819295E-3,5.6482875E-3,1.5613248E-3,8.737651E-3,1.436278E-2],"split_indices":[0,0,0,2,2,0,0,0,0,4,4,3,2,2,0,0,0,1,0,2,0,0,3,0,0,0,2,4,0,0,2,2,0,0,0,0,0,0,0,0,0,0,0],"split_type":[0,0,0,0,0,0,0,0,0,0,0,0,0,0,0,0,0,0,0,0,0,0,0,0,0,0,0,0,0,0,0,0,0,0,0,0,0,0,0,0,0,0,0],"sum_hessian":[1.5473007E2,6.887976E1,8.58503E1,5.0090042E1,1.878972E1,8.1393524E1,4.4567842E0,4.860936E1,1.4806803E0,9.1773815E0,9.612338E0,1.7571924E1,6.3821598E1,2.49819E0,1.9585946E0,7.9336257E0,1.2437563E0,7.145698E0,2.46664E0,1.1209668E1,6.362256E0,1.4998307E0,6.2321766E1,1.249175E0,1.2490149E0,4.2063537E0,2.9393446E0,9.727092E0,1.4825764E0,3.8784242E0,2.4838316E0,3.89831E1,2.3338667E1,2.220954E0,1.9853996E0,1.699442E0,1.2399027E0,6.2306747E0,3.4964173E0,1.2383937E0,1.2454379E0,2.4327827E1,1.46552725E1],"tree_param":{"num_deleted":"0","num_feature":"5","num_nodes":"43","size_leaf_vector":"1"}},{"base_weights":[2.7839078E-3,-1.1828126E0,9.564213E-1,-1.3103914E0,-1.2801167E-1,1.0497274E0,-6.256918E-1,-1.3709189E0,3.412055E-3,-7.941337E-1,5.9556735E-1,3.0409276E-1,1.2736622E0,-9.4758165E-1,2.589406E-3,-1.5013316E-2,-9.828906E-1,-9.36584E-3,-2.7698262E-3,9.049468E-3,-4.0461723E-4,-7.136092E-2,9.749539E-1,-1.2674178E-4,1.3052825E0,-1.5810474E-3,-1.223691E-2,-1.1831636E0,7.367486E-3,-1.0238555E-2,1.02153346E-1,1.0916588E0,3.7285243E-3,1.1226618E0,1.5388476E-2,-5.928826E-3,-1.2787423E-2,-1.145404E-3,6.5130913E-3,4.3171416E-3,1.2734273E-2,4.7503933E-3,1.2211153E-2],"categories":[],"categories_nodes":[],"categories_segments":[],"categories_sizes":[],"default_left":[0,0,0,0,0,0,0,0,0,0,0,0,0,0,0,0,0,0,0,0,0,0,0,0,0,0,0,0,0,0,0,0,0,0,0,0,0,0,0,0,0,0,0],"id":28,"left_children":[1,3,5,7,9,11,13,15,-1,17,19,21,23,25,-1,-1,27,-1,-1,-1,-1,29,31,-1,33,-1,-1,35,-1,-1,37,39,-1,41,-1,-1,-1,-1,-1,-1,-1,-1,-1],"loss_changes":[1.7681747E2,9.21405E0,1.3451294E1,6.674301E0,4.6328864E0,1.3340912E1,1.7982395E0,1.565155E0,0E0,1.03202105E-1,9.631027E-1,5.183427E0,2.5755768E0,7.2490406E-1,0E0,0E0,7.074791E0,0E0,0E0,0E0,0E0,2.41002E0,1.0969591E-1,0E0,8.9198303E-1,0E0,0E0,1.7368126E-1,0E0,0E0,1.5869646E0,1.2691689E-1,0E0,1.8532867E0,0E0,0E0,0E0,0E0,0E0,0E0,0E0,0E0,0E0],"parents":[2147483647,0,0,1,1,2,2,3,3,4,4,5,5,6,6,7,7,9,9,10,10,11,11,12,12,13,13,16,16,21,21,22,22,24,24,27,27,30,30,31,31,33,33],"right_children":[2,4,6,8,10,12,14,16,-1,18,20,22,24,26,-1,-1,28,-1,-1,-1,-1,30,32,-1,34,-1,-1,36,-1,-1,38,40,-1,42,-1,-1,-1,-1,-1,-1,-1,-1,-1],"split_conditions":[1.06E2,1E0,1.66E2,1E0,7.2E1,1.34E2,5.263158E0,4.923077E0,3.412055E-3,6.3E1,9.6E1,1E0,3.2857144E0,4.1764708E0,2.589406E-3,-1.5013316E-2,8.4E1,-9.36584E-3,-2.7698262E-3,9.049468E-3,-4.0461723E-4,3.7142856E0,5.0666666E0,-1.2674178E-4,1E0,-1.5810474E-3,-1.223691E-2,5.05E0,7.367486E-3,-1.0238555E-2,1.4E1,1.2E1,3.7285243E-3,4.111111E0,1.5388476E-2,-5.928826E-3,-1.2787423E-2,-1.145404E-3,6.5130913E-3,4.3171416E-3,1.2734273E-2,4.7503933E-3,1.2211153E-2],"split_indices":[0,4,0,3,0,0,2,2,0,0,0,3,2,2,0,0,0,0,0,0,0,2,2,0,3,0,0,2,0,0,1,1,0,2,0,0,0,0,0,0,0,0,0],"split_type":[0,0,0,0,0,0,0,0,0,0,0,0,0,0,0,0,0,0,0,0,0,0,0,0,0,0,0,0,0,0,0,0,0,0,0,0,0,0,0,0,0,0,0],"sum_hessian":[1.54388E2,6.871665E1,8.567135E1,6.1085957E1,7.6306973E0,8.121797E1,4.4533777E0,5.9090366E1,1.9955904E0,3.9223242E0,3.7083733E0,1.9302954E1,6.1915016E1,3.2130802E0,1.2402972E0,4.207891E1,1.7011457E1,2.439354E0,1.4829701E0,2.2103837E0,1.4979897E0,1.2949354E1,6.3535986E0,1.4998327E0,6.0415184E1,1.2400458E0,1.9730345E0,1.5516357E1,1.4950997E0,1.2402712E0,1.1709084E1,4.6409626E0,1.7126362E0,3.716395E1,2.3251232E1,3.1660914E0,1.2350266E1,8.963544E0,2.745539E0,1.7310691E0,2.9098935E0,5.672902E0,3.1491049E1],"tree_param":{"num_deleted":"0","num_feature":"5","num_nodes":"43","size_leaf_vector":"1"}},{"base_weights":[2.8297547E-3,-1.1742718E0,9.492689E-1,-1.3978945E0,-5.386619E-1,1.0420841E0,-6.217527E-1,-1.4266347E-2,-2.6161368E-3,-1.1580484E0,1.0445364E-1,2.5777823E-1,1.2515328E0,1.0007079E-3,-1.14876935E-2,-1.36013515E-2,1.5896214E-3,-1.6249214E-1,7.0127123E-3,-1.9144748E-1,9.6908814E-1,-1.259806E-4,1.2818327E0,-1.991176E-3,2.0067259E-3,3.8718373E-1,-8.4848166E-1,-3.734828E-1,6.722726E-3,1.1367369E-2,4.5650318E-1,1.0992475E0,1.5297465E-2,7.929731E-5,6.664447E-3,-1.07939895E-2,-1.9178098E-3,-6.636812E-3,1.7609803E-3,1.5231158E-3,5.5771684E-3,8.585905E-3,1.4188008E-2],"categories":[],"categories_nodes":[],"categories_segments":[],"categories_sizes":[],"default_left":[0,0,0,0,0,0,0,0,0,0,0,0,0,0,0,0,0,0,0,0,0,0,0,0,0,0,0,0,0,0,0,0,0,0,0,0,0,0,0,0,0,0,0],"id":29,"left_children":[1,3,5,7,9,11,13,-1,-1,15,17,19,21,23,-1,-1,-1,25,-1,27,29,-1,31,-1,-1,33,35,37,-1,-1,39,41,-1,-1,-1,-1,-1,-1,-1,-1,-1,-1,-1],"loss_changes":[1.7383363E2,9.131905E0,1.3259621E1,1.2863541E0,7.978799E0,1.3154266E1,1.7902179E0,0E0,0E0,2.912693E0,1.8019538E0,6.113159E0,2.4862976E0,1.7972045E-1,0E0,0E0,0E0,3.3951025E0,0E0,2.1700401E0,1.1231613E-1,0E0,1.1696854E0,0E0,0E0,5.45616E-1,3.8911366E-1,1.8271056E0,0E0,0E0,2.2242248E-2,1.8446808E0,0E0,0E0,0E0,0E0,0E0,0E0,0E0,0E0,0E0,0E0,0E0],"parents":[2147483647,0,0,1,1,2,2,3,3,4,4,5,5,6,6,9,9,10,10,11,11,12,12,13,13,17,17,19,19,20,20,22,22,25,25,26,26,27,27,30,30,31,31],"right_children":[2,4,6,8,10,12,14,-1,-1,16,18,20,22,24,-1,-1,-1,26,-1,28,30,-1,32,-1,-1,34,36,38,-1,-1,40,42,-1,-1,-1,-1,-1,-1,-1,-1,-1,-1,-1],"split_conditions":[1.06E2,7.2E1,1.66E2,7.25E0,4.3846154E0,1.32E2,1.88E2,-1.4266347E-2,-2.6161368E-3,1E0,1E0,1E0,3.2857144E0,5.05E0,-1.14876935E-2,-1.36013515E-2,1.5896214E-3,8E0,7.0127123E-3,6.142857E0,1.26E2,-1.259806E-4,1E0,-1.991176E-3,2.0067259E-3,8.1E1,4.923077E0,1E0,6.722726E-3,1.1367369E-2,1.2E1,5.263158E0,1.5297465E-2,7.929731E-5,6.664447E-3,-1.07939895E-2,-1.9178098E-3,-6.636812E-3,1.7609803E-3,1.5231158E-3,5.5771684E-3,8.585905E-3,1.4188008E-2],"split_indices":[0,0,0,2,2,0,0,0,0,4,4,3,2,2,0,0,0,1,0,2,0,0,3,0,0,0,2,4,0,0,1,2,0,0,0,0,0,0,0,0,0,0,0],"split_type":[0,0,0,0,0,0,0,0,0,0,0,0,0,0,0,0,0,0,0,0,0,0,0,0,0,0,0,0,0,0,0,0,0,0,0,0,0,0,0,0,0,0,0],"sum_hessian":[1.5403627E2,6.854501E1,8.5491264E1,4.9818413E1,1.8726603E1,8.104013E1,4.451129E0,4.8340202E1,1.4782089E0,9.13142E0,9.595182E0,1.7550587E1,6.3489548E1,2.4977474E0,1.9533818E0,7.888271E0,1.243149E0,7.132624E0,2.4625587E0,1.1204971E1,6.345615E0,1.4998347E0,6.198971E1,1.2488656E0,1.2488817E0,4.201551E0,2.931073E0,9.723303E0,1.481669E0,3.8641343E0,2.4814808E0,3.8827644E1,2.3162066E1,2.2178993E0,1.9836516E0,1.6923265E0,1.2387465E0,6.227399E0,3.495904E0,1.2448902E0,1.2365906E0,2.4250977E1,1.457667E1],"tree_param":{"num_deleted":"0","num_feature":"5","num_nodes":"43","size_leaf_vector":"1"}},{"base_weights":[2.9304235E-3,-1.1658108E0,9.4235796E-1,-1.3881757E0,-5.34593E-1,1.0346895E0,-6.180479E-1,-1.4167729E-2,-2.6010117E-3,-1.1502314E0,1.0355794E-1,3.000169E-1,1.2562484E0,-9.3819124E-1,2.5943643E-3,-1.3514964E-2,1.580892E-3,-1.4987925E-1,7.2862026E-3,-7.03901E-2,9.6309936E-1,-1.2522514E-4,1.2876096E0,-1.5411617E-3,-1.2135301E-2,8.120033E-3,-4.7409096E-1,-1.0162525E-2,1.01802856E-1,1.0799619E0,3.648587E-3,1.1060226E0,1.5208283E-2,4.740398E-3,-8.21862E-3,-1.1328656E-3,6.4670257E-3,4.265409E-3,1.2604134E-2,8.041351E-3,1.3666601E-2],"categories":[],"categories_nodes":[],"categories_segments":[],"categories_sizes":[],"default_left":[0,0,0,0,0,0,0,0,0,0,0,0,0,0,0,0,0,0,0,0,0,0,0,0,0,0,0,0,0,0,0,0,0,0,0,0,0,0,0,0,0],"id":30,"left_children":[1,3,5,7,9,11,13,-1,-1,15,17,19,21,23,-1,-1,-1,25,-1,27,29,-1,31,-1,-1,-1,33,-1,35,37,-1,39,-1,-1,-1,-1,-1,-1,-1,-1,-1],"loss_changes":[1.7092845E2,8.995293E0,1.3073898E1,1.2662811E0,7.858186E0,1.2947334E1,1.7737339E0,0E0,0E0,2.8755112E0,1.7868018E0,5.04881E0,2.506096E0,7.2142005E-1,0E0,0E0,0E0,2.9933882E0,0E0,2.3744564E0,1.1888313E-1,0E0,9.045334E-1,0E0,0E0,0E0,2.66049E0,0E0,1.5623208E0,1.2591743E-1,0E0,1.8914833E0,0E0,0E0,0E0,0E0,0E0,0E0,0E0,0E0,0E0],"parents":[2147483647,0,0,1,1,2,2,3,3,4,4,5,5,6,6,9,9,10,10,11,11,12,12,13,13,17,17,19,19,20,20,22,22,26,26,28,28,29,29,31,31],"right_children":[2,4,6,8,10,12,14,-1,-1,16,18,20,22,24,-1,-1,-1,26,-1,28,30,-1,32,-1,-1,-1,34,-1,36,38,-1,40,-1,-1,-1,-1,-1,-1,-1,-1,-1],"split_conditions":[1.06E2,7.2E1,1.66E2,7.25E0,4.3846154E0,1.34E2,5.263158E0,-1.4167729E-2,-2.6010117E-3,1E0,5.6923075E0,1E0,3.2857144E0,4.1764708E0,2.5943643E-3,-1.3514964E-2,1.580892E-3,4.5454545E0,7.2862026E-3,3.7142856E0,5.0666666E0,-1.2522514E-4,1E0,-1.5411617E-3,-1.2135301E-2,8.120033E-3,7E0,-1.0162525E-2,1.4E1,1.2E1,3.648587E-3,1E0,1.5208283E-2,4.740398E-3,-8.21862E-3,-1.1328656E-3,6.4670257E-3,4.265409E-3,1.2604134E-2,8.041351E-3,1.3666601E-2],"split_indices":[0,0,0,2,2,0,2,0,0,4,2,3,2,2,0,0,0,2,0,2,2,0,3,0,0,0,1,0,1,1,0,4,0,0,0,0,0,0,0,0,0],"split_type":[0,0,0,0,0,0,0,0,0,0,0,0,0,0,0,0,0,0,0,0,0,0,0,0,0,0,0,0,0,0,0,0,0,0,0,0,0,0,0,0,0],"sum_hessian":[1.5367935E2,6.837414E1,8.530521E1,4.9675346E1,1.8698795E1,8.085764E1,4.4475613E0,4.819759E1,1.4777539E0,9.108846E0,9.589949E0,1.9280159E1,6.1577484E1,3.207974E0,1.2395873E0,7.86581E0,1.2430356E0,7.36426E0,2.2256887E0,1.2943555E1,6.3366046E0,1.4998367E0,6.007765E1,1.2391143E0,1.9688598E0,1.4771762E0,5.887084E0,1.238516E0,1.1705039E1,4.6274343E0,1.7091705E0,3.700642E1,2.3071228E1,1.4824338E0,4.4046507E0,8.960241E0,2.7447984E0,1.729305E0,2.898129E0,1.9039215E1,1.7967205E1],"tree_param":{"num_deleted":"0","num_feature":"5","num_nodes":"41","size_leaf_vector":"1"}},{"base_weights":[3.0672364E-3,-1.1572765E0,9.3541867E-1,-1.2837344E0,-1.1765478E-1,1.027273E0,-6.141788E-1,-1.3442591E0,3.5017892E-3,-7.703716E-1,5.876989E-1,2.5426993E-1,1.2345297E0,4.235635E-3,-1.1394842E-2,-1.4739707E-2,-9.600151E-1,-9.138852E-3,-2.6121053E-3,8.953757E-3,-4.244349E-4,-1.8890248E-1,9.5735806E-1,-1.2447398E-4,1.2645818E0,-1.9502621E-3,2.015507E-3,-1.1583524E0,7.305123E-3,-3.698663E-1,6.69186E-3,1.0735825E0,3.6267969E-3,1.0830956E0,1.5120875E-2,-5.723088E-3,-1.2543327E-2,-6.5712277E-3,1.7402443E-3,4.239492E-3,1.2532091E-2,8.434224E-3,1.4025016E-2],"categories":[],"categories_nodes":[],"categories_segments":[],"categories_sizes":[],"default_left":[0,0,0,0,0,0,0,0,0,0,0,0,0,0,0,0,0,0,0,0,0,0,0,0,0,0,0,0,0,0,0,0,0,0,0,0,0,0,0,0,0,0,0],"id":31,"left_children":[1,3,5,7,9,11,13,15,-1,17,19,21,23,25,-1,-1,27,-1,-1,-1,-1,29,31,-1,33,-1,-1,35,-1,37,-1,39,-1,41,-1,-1,-1,-1,-1,-1,-1,-1,-1],"loss_changes":[1.6803758E2,8.946892E0,1.2889236E1,6.5621567E0,4.414777E0,1.2771477E1,1.7737112E0,1.5556412E0,0E0,1.19507074E-1,9.4988537E-1,5.9540515E0,2.4196472E0,1.7680915E-1,0E0,0E0,6.8514786E0,0E0,0E0,0E0,0E0,2.141958E0,1.17136E-1,0E0,1.1763611E0,0E0,0E0,2.0554733E-1,0E0,1.7890873E0,0E0,1.2451124E-1,0E0,1.85392E0,0E0,0E0,0E0,0E0,0E0,0E0,0E0,0E0,0E0],"parents":[2147483647,0,0,1,1,2,2,3,3,4,4,5,5,6,6,7,7,9,9,10,10,11,11,12,12,13,13,16,16,21,21,22,22,24,24,27,27,29,29,31,31,33,33],"right_children":[2,4,6,8,10,12,14,16,-1,18,20,22,24,26,-1,-1,28,-1,-1,-1,-1,30,32,-1,34,-1,-1,36,-1,38,-1,40,-1,42,-1,-1,-1,-1,-1,-1,-1,-1,-1],"split_conditions":[1.06E2,1E0,1.66E2,1E0,7.2E1,1.32E2,1.88E2,4.923077E0,3.5017892E-3,6.3E1,9.6E1,1E0,3.2857144E0,1.74E2,-1.1394842E-2,-1.4739707E-2,8.4E1,-9.138852E-3,-2.6121053E-3,8.953757E-3,-4.244349E-4,6.142857E0,5.0666666E0,-1.2447398E-4,1E0,-1.9502621E-3,2.015507E-3,5.05E0,7.305123E-3,1E0,6.69186E-3,1.2E1,3.6267969E-3,5.263158E0,1.5120875E-2,-5.723088E-3,-1.2543327E-2,-6.5712277E-3,1.7402443E-3,4.239492E-3,1.2532091E-2,8.434224E-3,1.4025016E-2],"split_indices":[0,4,0,3,0,0,0,2,0,0,0,3,2,0,0,0,0,0,0,0,0,2,2,0,3,0,0,2,0,4,0,1,0,2,0,0,0,0,0,0,0,0,0],"split_type":[0,0,0,0,0,0,0,0,0,0,0,0,0,0,0,0,0,0,0,0,0,0,0,0,0,0,0,0,0,0,0,0,0,0,0,0,0,0,0,0,0,0,0],"sum_hessian":[1.5332391E2,6.820241E1,8.512151E1,6.059671E1,7.605696E0,8.0676384E1,4.445128E0,5.8603165E1,1.9935468E0,3.9023657E0,3.7033308E0,1.7528252E1,6.314813E1,2.4972198E0,1.9479084E0,4.1692673E1,1.6910492E1,2.4241915E0,1.4781742E0,2.2055342E0,1.4977965E0,1.1199977E1,6.328275E0,1.4998386E0,6.1648293E1,1.248252E0,1.2489678E0,1.5416576E1,1.4939154E0,9.719235E0,1.4807422E0,4.620018E0,1.7082568E0,3.8669502E1,2.2978788E1,3.14942E0,1.2267157E1,6.2238913E0,3.4953437E0,1.7285943E0,2.8914237E0,2.4172066E1,1.4497437E1],"tree_param":{"num_deleted":"0","num_feature":"5","num_nodes":"43","size_leaf_vector":"1"}},{"base_weights":[3.192874E-3,-1.1491195E0,9.2870814E-1,-1.3700119E0,-5.237544E-1,1.020095E0,-6.105387E-1,-1.3985627E-2,-2.5233817E-3,-1.1348718E0,1.0712291E-1,2.961133E-1,1.2393693E0,4.212008E-3,-1.1333502E-2,-1.3343086E-2,1.5543076E-3,-1.4378306E-1,7.2403722E-3,-6.942926E-2,9.5167947E-1,-1.237271E-4,1.2704864E0,-1.9464227E-3,2.011731E-3,8.1047565E-3,-4.663587E-1,-1.0087775E-2,1.0145886E-1,1.11891E-2,4.451099E-1,1.0898508E0,1.5035192E-2,4.7473083E-3,-8.126819E-3,-1.1204497E-3,6.421552E-3,1.4680603E-3,5.4555E-3,7.893789E-3,1.3500394E-2],"categories":[],"categories_nodes":[],"categories_segments":[],"categories_sizes":[],"default_left":[0,0,0,0,0,0,0,0,0,0,0,0,0,0,0,0,0,0,0,0,0,0,0,0,0,0,0,0,0,0,0,0,0,0,0,0,0,0,0,0,0],"id":32,"left_children":[1,3,5,7,9,11,13,-1,-1,15,17,19,21,23,-1,-1,-1,25,-1,27,29,-1,31,-1,-1,-1,33,-1,35,-1,37,39,-1,-1,-1,-1,-1,-1,-1,-1,-1],"loss_changes":[1.6525185E2,8.816742E0,1.2710281E1,1.2549057E0,7.6915226E0,1.2569328E1,1.7536354E0,0E0,0E0,2.796114E0,1.740965E0,4.920441E0,2.439659E0,1.7612655E-1,0E0,0E0,0E0,2.9488208E0,0E0,2.3396251E0,1.2204838E-1,0E0,9.1781616E-1,0E0,0E0,0E0,2.6270208E0,0E0,1.5381334E0,0E0,2.4095476E-2,1.8931236E0,0E0,0E0,0E0,0E0,0E0,0E0,0E0,0E0,0E0],"parents":[2147483647,0,0,1,1,2,2,3,3,4,4,5,5,6,6,9,9,10,10,11,11,12,12,13,13,17,17,19,19,20,20,22,22,26,26,28,28,30,30,31,31],"right_children":[2,4,6,8,10,12,14,-1,-1,16,18,20,22,24,-1,-1,-1,26,-1,28,30,-1,32,-1,-1,-1,34,-1,36,-1,38,40,-1,-1,-1,-1,-1,-1,-1,-1,-1],"split_conditions":[1.06E2,7.2E1,1.66E2,7.25E0,4.3846154E0,1.34E2,1.88E2,-1.3985627E-2,-2.5233817E-3,1E0,5.6923075E0,1E0,3.2857144E0,5.05E0,-1.1333502E-2,-1.3343086E-2,1.5543076E-3,4.5454545E0,7.2403722E-3,3.7142856E0,1.26E2,-1.237271E-4,1E0,-1.9464227E-3,2.011731E-3,8.1047565E-3,7E0,-1.0087775E-2,1.4E1,1.11891E-2,1.2E1,1E0,1.5035192E-2,4.7473083E-3,-8.126819E-3,-1.1204497E-3,6.421552E-3,1.4680603E-3,5.4555E-3,7.893789E-3,1.3500394E-2],"split_indices":[0,0,0,2,2,0,0,0,0,4,2,3,2,2,0,0,0,2,0,2,0,0,3,0,0,0,1,0,1,0,1,4,0,0,0,0,0,0,0,0,0],"split_type":[0,0,0,0,0,0,0,0,0,0,0,0,0,0,0,0,0,0,0,0,0,0,0,0,0,0,0,0,0,0,0,0,0,0,0,0,0,0,0,0,0],"sum_hessian":[1.5294965E2,6.80199E1,8.492975E1,4.938523E1,1.8634668E1,8.048834E1,4.441407E0,4.7910057E1,1.4751748E0,9.059776E0,9.574891E0,1.925714E1,6.12312E1,2.4971104E0,1.9442966E0,7.817372E0,1.2424048E0,7.351774E0,2.2231174E0,1.2937374E1,6.319765E0,1.4998406E0,5.973136E1,1.2484417E0,1.2486688E0,1.4752133E0,5.8765607E0,1.2366322E0,1.1700742E1,3.8424745E0,2.4772909E0,3.6846546E1,2.2884813E1,1.4810957E0,4.3954654E0,8.956773E0,2.7439687E0,1.24407E0,1.2332207E0,1.8971588E1,1.787496E1],"tree_param":{"num_deleted":"0","num_feature":"5","num_nodes":"41","size_leaf_vector":"1"}},{"base_weights":[3.3119265E-3,-1.1408364E0,9.219417E-1,-1.2665997E0,-1.11227944E-1,1.0128573E0,-6.069338E-1,-1.3270224E0,3.532311E-3,-7.5652647E-1,5.8372724E-1,2.5082797E-1,1.2180213E0,-9.2561656E-1,2.6225294E-3,-1.4562604E-2,-9.453505E-1,-9.001911E-3,-2.5275752E-3,8.893958E-3,-4.183946E-4,-1.8639332E-1,9.458706E-1,-1.2298452E-4,1.2478403E0,-1.4800924E-3,-1.2004398E-2,-1.1423464E0,7.256645E-3,-3.6629754E-1,6.6611557E-3,1.0622915E0,3.5486508E-3,1.0673503E0,1.4951183E-2,-5.6024143E-3,-1.2382718E-2,-6.506518E-3,1.7197204E-3,4.188944E-3,1.2407207E-2,8.285914E-3,1.3867247E-2],"categories":[],"categories_nodes":[],"categories_segments":[],"categories_sizes":[],"default_left":[0,0,0,0,0,0,0,0,0,0,0,0,0,0,0,0,0,0,0,0,0,0,0,0,0,0,0,0,0,0,0,0,0,0,0,0,0,0,0,0,0,0,0],"id":33,"left_children":[1,3,5,7,9,11,13,15,-1,17,19,21,23,25,-1,-1,27,-1,-1,-1,-1,29,31,-1,33,-1,-1,35,-1,37,-1,39,-1,41,-1,-1,-1,-1,-1,-1,-1,-1,-1],"loss_changes":[1.6247073E2,8.77317E0,1.2532173E1,6.463707E0,4.2936883E0,1.2405029E1,1.7489295E0,1.5463715E0,0E0,1.2634206E-1,9.35964E-1,5.7997303E0,2.3557892E0,7.1979E-1,0E0,0E0,6.701687E0,0E0,0E0,0E0,0E0,2.114296E0,1.260171E-1,0E0,1.1845016E0,0E0,0E0,2.190857E-1,0E0,1.7519078E0,0E0,1.2379551E-1,0E0,1.8634415E0,0E0,0E0,0E0,0E0,0E0,0E0,0E0,0E0,0E0],"parents":[2147483647,0,0,1,1,2,2,3,3,4,4,5,5,6,6,7,7,9,9,10,10,11,11,12,12,13,13,16,16,21,21,22,22,24,24,27,27,29,29,31,31,33,33],"right_children":[2,4,6,8,10,12,14,16,-1,18,20,22,24,26,-1,-1,28,-1,-1,-1,-1,30,32,-1,34,-1,-1,36,-1,38,-1,40,-1,42,-1,-1,-1,-1,-1,-1,-1,-1,-1],"split_conditions":[1.06E2,1E0,1.66E2,1E0,7.2E1,1.32E2,5.263158E0,4.923077E0,3.532311E-3,6.3E1,9.6E1,1E0,3.2857144E0,4.1764708E0,2.6225294E-3,-1.4562604E-2,8.4E1,-9.001911E-3,-2.5275752E-3,8.893958E-3,-4.183946E-4,6.142857E0,5.0666666E0,-1.2298452E-4,1E0,-1.4800924E-3,-1.2004398E-2,5.05E0,7.256645E-3,1E0,6.6611557E-3,1.2E1,3.5486508E-3,5.263158E0,1.4951183E-2,-5.6024143E-3,-1.2382718E-2,-6.506518E-3,1.7197204E-3,4.188944E-3,1.2407207E-2,8.285914E-3,1.3867247E-2],"split_indices":[0,4,0,3,0,0,2,2,0,0,0,3,2,2,0,0,0,0,0,0,0,2,2,0,3,0,0,2,0,4,0,1,0,2,0,0,0,0,0,0,0,0,0],"split_type":[0,0,0,0,0,0,0,0,0,0,0,0,0,0,0,0,0,0,0,0,0,0,0,0,0,0,0,0,0,0,0,0,0,0,0,0,0,0,0,0,0,0,0],"sum_hessian":[1.5257895E2,6.784121E1,8.473774E1,6.0251503E1,7.5897026E0,8.030015E1,4.437589E0,5.8259094E1,1.99241E0,3.8895113E0,3.7001915E0,1.7504967E1,6.279518E1,3.1995635E0,1.2380257E0,4.1418793E1,1.6840302E1,2.4141364E0,1.4753748E0,2.20233E0,1.4978614E0,1.1194694E1,6.310273E0,1.4998424E0,6.129534E1,1.2372757E0,1.9622877E0,1.5347375E1,1.492926E0,9.714897E0,1.4797964E0,4.6055956E0,1.7046772E0,3.8505978E1,2.2789364E1,3.1390488E0,1.2208325E1,6.2201595E0,3.4947376E0,1.7267597E0,2.8788362E0,2.409064E1,1.4415338E1],"tree_param":{"num_deleted":"0","num_feature":"5","num_nodes":"43","size_leaf_vector":"1"}},{"base_weights":[3.4390427E-3,-1.1329206E0,9.1539717E-1,-1.3524373E0,-5.131737E-1,1.0058693E0,-6.031603E-1,-1.3809573E-2,-2.4471818E-3,-1.1199771E0,1.1059964E-1,2.921893E-1,1.22298E0,7.3722703E-3,-1.1243782E-2,-1.3176809E-2,1.528011E-3,-1.3781647E-1,7.1949135E-3,-6.847872E-2,9.4030935E-1,-1.2224625E-4,1.2538681E0,-1.904424E-3,2.0186943E-3,8.089427E-3,-4.5879284E-1,-1.0014275E-2,1.0112075E-1,1.1068295E-2,4.3836048E-1,1.0740852E0,1.4868802E-2,4.7537214E-3,-8.037079E-3,-1.1081586E-3,6.376655E-3,5.3880583E-3,1.4307172E-3,7.7493885E-3,1.333924E-2],"categories":[],"categories_nodes":[],"categories_segments":[],"categories_sizes":[],"default_left":[0,0,0,0,0,0,0,0,0,0,0,0,0,0,0,0,0,0,0,0,0,0,0,0,0,0,0,0,0,0,0,0,0,0,0,0,0,0,0,0,0],"id":34,"left_children":[1,3,5,7,9,11,13,-1,-1,15,17,19,21,23,-1,-1,-1,25,-1,27,29,-1,31,-1,-1,-1,33,-1,35,-1,37,39,-1,-1,-1,-1,-1,-1,-1,-1,-1],"loss_changes":[1.5979301E2,8.645706E0,1.2358955E1,1.2443237E0,7.530502E0,1.2209869E1,1.737794E0,0E0,0E0,2.7198868E0,1.6963253E0,4.79381E0,2.376007E0,1.7297001E-1,0E0,0E0,0E0,2.9051847E0,0E0,2.3055062E0,1.2509775E-1,0E0,9.3213654E-1,0E0,0E0,0E0,2.5942063E0,0E0,1.5143927E0,0E0,2.597034E-2,1.8952751E0,0E0,0E0,0E0,0E0,0E0,0E0,0E0,0E0,0E0],"parents":[2147483647,0,0,1,1,2,2,3,3,4,4,5,5,6,6,9,9,10,10,11,11,12,12,13,13,17,17,19,19,20,20,22,22,26,26,28,28,30,30,31,31],"right_children":[2,4,6,8,10,12,14,-1,-1,16,18,20,22,24,-1,-1,-1,26,-1,28,30,-1,32,-1,-1,-1,34,-1,36,-1,38,40,-1,-1,-1,-1,-1,-1,-1,-1,-1],"split_conditions":[1.06E2,7.2E1,1.66E2,7.25E0,4.3846154E0,1.34E2,1.88E2,-1.3809573E-2,-2.4471818E-3,1E0,5.6923075E0,1E0,3.2857144E0,5.05E0,-1.1243782E-2,-1.3176809E-2,1.528011E-3,4.5454545E0,7.1949135E-3,3.7142856E0,1.26E2,-1.2224625E-4,1E0,-1.904424E-3,2.0186943E-3,8.089427E-3,7E0,-1.0014275E-2,1.4E1,1.1068295E-2,4.8E0,1E0,1.4868802E-2,4.7537214E-3,-8.037079E-3,-1.1081586E-3,6.376655E-3,5.3880583E-3,1.4307172E-3,7.7493885E-3,1.333924E-2],"split_indices":[0,0,0,2,2,0,0,0,0,4,2,3,2,2,0,0,0,2,0,2,0,0,3,0,0,0,1,0,1,0,2,4,0,0,0,0,0,0,0,0,0],"split_type":[0,0,0,0,0,0,0,0,0,0,0,0,0,0,0,0,0,0,0,0,0,0,0,0,0,0,0,0,0,0,0,0,0,0,0,0,0,0,0,0,0],"sum_hessian":[1.5219313E2,6.7652E1,8.454113E1,4.908402E1,1.8567982E1,8.01062E1,4.4349265E0,4.7611515E1,1.4725047E0,9.00879E0,9.559192E0,1.9232271E1,6.087393E1,2.4964943E0,1.9384322E0,7.7670374E0,1.2417531E0,7.3387733E0,2.220418E0,1.2930825E1,6.3014464E0,1.4998443E0,5.937409E1,1.2480272E0,1.2484672E0,1.473183E0,5.86559E0,1.2346243E0,1.1696201E1,3.826839E0,2.4746077E0,3.6681587E1,2.26925E1,1.4797149E0,4.385875E0,8.953148E0,2.7430532E0,1.2311466E0,1.243461E0,1.8902254E1,1.7779333E1],"tree_param":{"num_deleted":"0","num_feature":"5","num_nodes":"41","size_leaf_vector":"1"}},{"base_weights":[3.556649E-3,-1.124875E0,9.088012E-1,-1.2499957E0,-1.0493369E-1,9.9881667E-1,-5.9961754E-1,-1.3103402E0,3.5620173E-3,-7.4297786E-1,5.797978E-1,2.4745046E-1,1.2019806E0,-9.1665244E-1,2.62674E-3,-1.4391756E-2,-9.310601E-1,-9.95831E-3,-3.4596792E-1,8.834902E-3,-4.1247005E-4,-1.8391992E-1,9.346171E-1,-1.21512254E-4,1.2315804E0,-1.4417161E-3,-1.1908109E-2,-1.1267692E0,7.20861E-3,-3.4513182E-4,-5.0030975E-3,-3.627761E-1,6.6306083E-3,1.0509331E0,3.4788104E-3,1.0519919E0,1.4788003E-2,-5.484141E-3,-1.2226748E-2,-6.4426707E-3,1.6994036E-3,4.1322345E-3,1.22855455E-2,8.1408275E-3,1.3714436E-2],"categories":[],"categories_nodes":[],"categories_segments":[],"categories_sizes":[],"default_left":[0,0,0,0,0,0,0,0,0,0,0,0,0,0,0,0,0,0,0,0,0,0,0,0,0,0,0,0,0,0,0,0,0,0,0,0,0,0,0,0,0,0,0,0,0],"id":35,"left_children":[1,3,5,7,9,11,13,15,-1,17,19,21,23,25,-1,-1,27,-1,29,-1,-1,31,33,-1,35,-1,-1,37,-1,-1,-1,39,-1,41,-1,43,-1,-1,-1,-1,-1,-1,-1,-1,-1],"loss_changes":[1.5711891E2,8.606285E0,1.2186913E1,6.3688965E0,4.1762276E0,1.2053894E1,1.7254794E0,1.5382996E0,0E0,1.4496422E-1,9.2230594E-1,5.650028E0,2.2945557E0,7.164712E-1,0E0,0E0,6.5563965E0,0E0,1.4759535E-1,0E0,0E0,2.0870464E0,1.3203287E-1,0E0,1.1939545E0,0E0,0E0,2.3223495E-1,0E0,0E0,0E0,1.7155479E0,0E0,1.255703E-1,0E0,1.8731956E0,0E0,0E0,0E0,0E0,0E0,0E0,0E0,0E0,0E0],"parents":[2147483647,0,0,1,1,2,2,3,3,4,4,5,5,6,6,7,7,9,9,10,10,11,11,12,12,13,13,16,16,18,18,21,21,22,22,24,24,27,27,31,31,33,33,35,35],"right_children":[2,4,6,8,10,12,14,16,-1,18,20,22,24,26,-1,-1,28,-1,30,-1,-1,32,34,-1,36,-1,-1,38,-1,-1,-1,40,-1,42,-1,44,-1,-1,-1,-1,-1,-1,-1,-1,-1],"split_conditions":[1.06E2,1E0,1.66E2,1E0,7.2E1,1.32E2,5.263158E0,4.923077E0,3.5620173E-3,4.576923E0,9.6E1,1E0,3.2857144E0,4.1764708E0,2.62674E-3,-1.4391756E-2,8.4E1,-9.95831E-3,6E0,8.834902E-3,-4.1247005E-4,6.142857E0,5.0666666E0,-1.21512254E-4,1E0,